{"learner":{"attributes":{"best_iteration":"63","best_score":"0.9905660377358491"},"feature_names":[],"feature_types":[],"gradient_booster":{"model":{"cats":{"enc":[],"feature_segments":[],"sorted_idx":[]},"gbtree_model_param":{"num_parallel_tree":"1","num_trees":"114"},"iteration_indptr":[0,1,2,3,4,5,6,7,8,9,10,11,12,13,14,15,16,17,18,19,20,21,22,23,24,25,26,27,28,29,30,31,32,33,34,35,36,37,38,39,40,41,42,43,44,45,46,47,48,49,50,51,52,53,54,55,56,57,58,59,60,61,62,63,64,65,66,67,68,69,70,71,72,73,74,75,76,77,78,79,80,81,82,83,84,85,86,87,88,89,90,91,92,93,94,95,96,97,98,99,100,101,102,103,104,105,106,107,108,109,110,111,112,113,114],"tree_info":[0,0,0,0,0,0,0,0,0,0,0,0,0,0,0,0,0,0,0,0,0,0,0,0,0,0,0,0,0,0,0,0,0,0,0,0,0,0,0,0,0,0,0,0,0,0,0,0,0,0,0,0,0,0,0,0,0,0,0,0,0,0,0,0,0,0,0,0,0,0,0,0,0,0,0,0,0,0,0,0,0,0,0,0,0,0,0,0,0,0,0,0,0,0,0,0,0,0,0,0,0,0,0,0,0,0,0,0,0,0,0,0,0,0],"trees":[{"base_weights":[-0E0,-1.526195E0,1.8359654E0,-1.7092979E0,5.7187533E-1,-4.6219528E-2,1.9031335E0,-1.8525345E0,-1.6340762E-1,3.205511E-2,1.9563682E0,-5.9797275E-1,-3.498391E-1,-3.0395234E-1,4.1010955E-1,1.3668911E-1,5.980872E-1],"categories":[],"categories_nodes":[],"categories_segments":[],"categories_sizes":[],"default_left":[0,0,0,0,0,0,0,0,0,0,0,0,0,0,0,0,0],"id":0,"left_children":[1,3,5,7,-1,-1,9,11,13,-1,15,-1,-1,-1,-1,-1,-1],"loss_changes":[3.5118298E2,4.3552643E1,7.6550446E0,1.4353912E1,0E0,0E0,5.226959E0,5.3609314E0,7.6410108E0,0E0,2.8354797E0,0E0,0E0,0E0,0E0,0E0,0E0],"parents":[2147483647,0,0,1,1,2,2,3,3,6,6,7,7,8,8,10,10],"right_children":[2,4,6,8,-1,-1,10,12,14,-1,16,-1,-1,-1,-1,-1,-1],"split_conditions":[1.6926223E-1,9.306002E-1,-1.044297E0,-1.0472032E-1,5.7187533E-1,-4.6219528E-2,-1.3055918E-1,6.499309E-1,1.012682E0,3.205511E-2,-4.04614E-1,-5.9797275E-1,-3.498391E-1,-3.0395234E-1,4.1010955E-1,1.3668911E-1,5.980872E-1],"split_indices":[22,27,1,13,0,0,23,21,1,0,26,0,0,0,0,0,0],"split_type":[0,0,0,0,0,0,0,0,0,0,0,0,0,0,0,0,0],"sum_hessian":[1.25E2,6.827365E1,5.6726353E1,6.489527E1,3.3783784E0,1.8445946E0,5.4881756E1,5.936149E1,5.533784E0,1.5945946E0,5.3287163E1,4.9E1,1.0361486E1,3.5945945E0,1.9391892E0,1.3445946E0,5.1942566E1],"tree_param":{"num_deleted":"0","num_feature":"31","num_nodes":"17","size_leaf_vector":"1"}},{"base_weights":[1.2281145E-3,-1.2743844E0,1.3259257E0,-1.4735156E0,7.6757E-1,-4.503065E-1,1.4385428E0,-1.5004458E0,-1.1524259E-1,-1.6629666E-1,4.743622E-1,3.6561452E-3,1.5092727E0,-2.7525568E-1,-4.655608E-1,-4.2410168E-1,4.892423E-1,1.42925E-1,4.6831897E-1],"categories":[],"categories_nodes":[],"categories_segments":[],"categories_sizes":[],"default_left":[0,0,0,0,0,0,0,0,0,0,0,0,0,0,0,0,0,0,0],"id":1,"left_children":[1,3,5,7,9,-1,11,13,-1,-1,-1,15,17,-1,-1,-1,-1,-1,-1],"loss_changes":[1.9614626E2,2.4232704E1,1.8485962E1,1.4848022E0,5.914012E0,0E0,5.563736E0,1.3375778E0,0E0,0E0,0E0,6.7084265E0,2.6705475E0,0E0,0E0,0E0,0E0,0E0,0E0],"parents":[2147483647,0,0,1,1,2,2,3,3,4,4,6,6,7,7,11,11,12,12],"right_children":[2,4,6,8,10,-1,12,14,-1,-1,-1,16,18,-1,-1,-1,-1,-1,-1],"split_conditions":[5.614986E-2,1.2307429E-1,-2.327333E-1,6.1981624E-1,9.673081E-3,-4.503065E-1,-2.9140463E-1,-8.3554053E-1,-1.1524259E-1,-1.6629666E-1,4.743622E-1,8.789884E-1,-9.3774176E-1,-2.7525568E-1,-4.655608E-1,-4.2410168E-1,4.892423E-1,1.42925E-1,4.6831897E-1],"split_indices":[7,3,26,12,1,0,22,19,0,0,0,4,1,0,0,0,0,0,0],"split_type":[0,0,0,0,0,0,0,0,0,0,0,0,0,0,0,0,0,0,0],"sum_hessian":[1.1574539E2,5.896791E1,5.677748E1,5.377082E1,5.1970897E0,2.0966144E0,5.4680866E1,5.2411663E1,1.3591574E0,1.999674E0,3.1974154E0,2.5776818E0,5.2103184E1,4.5033913E0,4.790827E1,1.3889096E0,1.1887723E0,2.5695121E0,4.9533672E1],"tree_param":{"num_deleted":"0","num_feature":"31","num_nodes":"19","size_leaf_vector":"1"}},{"base_weights":[1.4341269E-3,-1.0685692E0,1.126608E0,-1.2506852E0,5.761747E-1,-3.8408783E-1,1.2240038E0,-1.3018754E0,1.632736E-1,-4.4631103E-1,1.2264167E0,1.2604856E-1,1.3032945E0,-4.336208E-2,-4.0124607E-1,4.2363617E-1,1.7078514E-1,-3.9485905E-1,4.039683E-1,1.03325345E-1,4.0852007E-1],"categories":[],"categories_nodes":[],"categories_segments":[],"categories_sizes":[],"default_left":[0,0,0,0,0,0,0,0,0,0,0,0,0,0,0,0,0,0,0,0,0],"id":2,"left_children":[1,3,5,7,9,-1,11,13,-1,-1,15,17,19,-1,-1,-1,-1,-1,-1,-1,-1],"loss_changes":[1.1959646E2,1.5371334E1,1.1610298E1,4.3349915E0,7.264875E0,0E0,4.0300827E0,1.8074112E0,0E0,0E0,3.572917E-1,6.1453557E0,2.35598E0,0E0,0E0,0E0,0E0,0E0,0E0,0E0,0E0],"parents":[2147483647,0,0,1,1,2,2,3,3,4,4,6,6,7,7,10,10,11,11,12,12],"right_children":[2,4,6,8,10,-1,12,14,-1,-1,16,18,20,-1,-1,-1,-1,-1,-1,-1,-1],"split_conditions":[5.614986E-2,1.07998595E-1,-2.327333E-1,1.1248414E-1,-2.590314E-1,-3.8408783E-1,-3.033014E-1,-1.2596332E0,1.632736E-1,-4.4631103E-1,-4.3170485E-1,8.789884E-1,-9.3774176E-1,-4.336208E-2,-4.0124607E-1,4.2363617E-1,1.7078514E-1,-3.9485905E-1,4.039683E-1,1.03325345E-1,4.0852007E-1],"split_indices":[7,20,26,13,1,0,23,14,0,0,16,4,1,0,0,0,0,0,0,0,0],"split_type":[0,0,0,0,0,0,0,0,0,0,0,0,0,0,0,0,0,0,0,0,0],"sum_hessian":[9.90064E1,5.0751106E1,4.8255295E1,4.5728153E1,5.0229516E0,1.7980705E0,4.6457222E1,4.4505E1,1.223151E0,1.1518894E0,3.8710623E0,3.1588485E0,4.3298374E1,1.3544872E0,4.3150517E1,2.8685143E0,1.002548E0,1.4415342E0,1.7173145E0,2.5539036E0,4.0744473E1],"tree_param":{"num_deleted":"0","num_feature":"31","num_nodes":"21","size_leaf_vector":"1"}},{"base_weights":[1.7016508E-3,-8.7836015E-1,1.0934441E0,-1.0023767E0,9.525704E-1,3.8808817E-1,3.7418577E-1,-1.1120303E0,-5.864243E-2,1.3709006E-1,3.600163E-1,-4.2782086E-1,7.888615E-1,-3.4979516E-1,9.175934E-2,6.1180925E-1,-2.4174769E-1,3.8136485E-1,-3.7853226E-2],"categories":[],"categories_nodes":[],"categories_segments":[],"categories_sizes":[],"default_left":[0,0,0,0,0,0,0,0,0,0,0,0,0,0,0,0,0,0,0],"id":3,"left_children":[1,3,5,7,9,11,-1,13,15,-1,-1,-1,17,-1,-1,-1,-1,-1,-1],"loss_changes":[7.83086E1,1.0404724E1,3.8654366E0,4.3698845E0,2.6881933E-1,5.0969386E0,0E0,2.9613876E0,7.456174E0,0E0,0E0,0E0,2.5171404E0,0E0,0E0,0E0,0E0,0E0,0E0],"parents":[2147483647,0,0,1,1,2,2,3,3,4,4,5,5,7,7,8,8,12,12],"right_children":[2,4,6,8,10,12,-1,14,16,-1,-1,-1,18,-1,-1,-1,-1,-1,-1],"split_conditions":[1.6926223E-1,6.92686E-1,3.76471E-1,1.1346246E0,-2.8457335E-1,-8.8909703E-1,3.7418577E-1,1.8419608E-1,8.320014E-1,1.3709006E-1,3.600163E-1,-4.2782086E-1,-2.7349055E-1,-3.4979516E-1,9.175934E-2,6.1180925E-1,-2.4174769E-1,3.8136485E-1,-3.7853226E-2],"split_indices":[22,27,27,21,22,1,0,13,1,0,0,0,17,0,0,0,0,0,0],"split_type":[0,0,0,0,0,0,0,0,0,0,0,0,0,0,0,0,0,0,0],"sum_hessian":[8.1172165E1,4.4960503E1,3.6211662E1,4.217907E1,2.7814322E0,6.589527E0,2.9622133E1,3.776088E1,4.4181905E0,1.0848066E0,1.6966255E0,1.1151773E0,5.47435E0,3.6405777E1,1.3551037E0,1.0846887E0,3.3335018E0,3.5433037E0,1.9310464E0],"tree_param":{"num_deleted":"0","num_feature":"31","num_nodes":"19","size_leaf_vector":"1"}},{"base_weights":[5.6729643E-3,-8.5751516E-1,9.36093E-1,-1.0144511E0,4.622224E-1,1.7509408E-1,3.5160986E-1,-6.5822357E-1,-3.5737425E-1,3.6040518E-1,-1.3140932E-1,-8.26063E-1,3.3875144E-1,-3.045926E-1,6.904662E-1,-3.812977E-1,1.13068186E-1],"categories":[],"categories_nodes":[],"categories_segments":[],"categories_sizes":[],"default_left":[0,0,0,0,0,0,0,0,0,0,0,0,0,0,0,0,0],"id":4,"left_children":[1,3,5,7,9,11,-1,13,-1,-1,-1,15,-1,-1,-1,-1,-1],"loss_changes":[5.339268E1,7.220867E0,5.7091484E0,1.8125439E0,2.6019197E0,7.5743637E0,0E0,1.1601734E1,0E0,0E0,0E0,2.1598895E0,0E0,0E0,0E0,0E0,0E0],"parents":[2147483647,0,0,1,1,2,2,3,3,4,4,5,5,7,7,11,11],"right_children":[2,4,6,8,10,12,-1,14,-1,-1,-1,16,-1,-1,-1,-1,-1],"split_conditions":[5.614986E-2,1.2307429E-1,2.1381415E-1,-7.3306304E-1,5.5893135E-1,-1.6717093E-1,3.5160986E-1,-3.9796668E-1,-3.5737425E-1,3.6040518E-1,-1.3140932E-1,-1.2685E-1,3.3875144E-1,-3.045926E-1,6.904662E-1,-3.812977E-1,1.13068186E-1],"split_indices":[7,3,22,15,0,21,0,26,0,0,0,23,0,0,0,0,0],"split_type":[0,0,0,0,0,0,0,0,0,0,0,0,0,0,0,0,0],"sum_hessian":[6.61498E1,3.4320793E1,3.182901E1,3.0708277E1,3.6125169E0,7.602173E0,2.4226837E1,1.0446949E1,2.0261328E1,1.9540577E0,1.6584593E0,3.71983E0,3.8823428E0,9.419652E0,1.027297E0,2.7093174E0,1.0105126E0],"tree_param":{"num_deleted":"0","num_feature":"31","num_nodes":"17","size_leaf_vector":"1"}},{"base_weights":[6.4298837E-3,-7.8270566E-1,8.7527436E-1,-9.408022E-1,3.8956603E-1,1.509309E-1,3.3549514E-1,-5.8085966E-1,-3.3928353E-1,-1.4909531E-1,3.3163792E-1,-7.135335E-1,3.0365145E-1,-2.756499E-1,5.0575477E-1,-3.481623E-1,8.425383E-2],"categories":[],"categories_nodes":[],"categories_segments":[],"categories_sizes":[],"default_left":[0,0,0,0,0,0,0,0,0,0,0,0,0,0,0,0,0],"id":5,"left_children":[1,3,5,7,9,11,-1,13,-1,-1,-1,15,-1,-1,-1,-1,-1],"loss_changes":[3.6301975E1,5.203499E0,4.407099E0,1.5659828E0,2.2580876E0,4.9769793E0,0E0,7.005138E0,0E0,0E0,0E0,1.545018E0,0E0,0E0,0E0,0E0,0E0],"parents":[2147483647,0,0,1,1,2,2,3,3,4,4,5,5,7,7,11,11],"right_children":[2,4,6,8,10,12,-1,14,-1,-1,-1,16,-1,-1,-1,-1,-1],"split_conditions":[5.614986E-2,1.2307429E-1,2.1381415E-1,-7.3306304E-1,9.673081E-3,-1.6717093E-1,3.3549514E-1,-3.9796668E-1,-3.3928353E-1,-1.4909531E-1,3.3163792E-1,-1.2685E-1,3.0365145E-1,-2.756499E-1,5.0575477E-1,-3.481623E-1,8.425383E-2],"split_indices":[7,3,22,15,1,21,0,26,0,0,0,23,0,0,0,0,0],"split_type":[0,0,0,0,0,0,0,0,0,0,0,0,0,0,0,0,0],"sum_hessian":[5.261528E1,2.7580332E1,2.5034946E1,2.4332422E1,3.2479112E0,6.3582735E0,1.8676674E1,8.644838E0,1.5687583E1,1.472929E0,1.7749822E0,3.1867223E0,3.1715515E0,7.6092224E0,1.0356163E0,2.1801343E0,1.006588E0],"tree_param":{"num_deleted":"0","num_feature":"31","num_nodes":"17","size_leaf_vector":"1"}},{"base_weights":[7.722938E-3,-7.965077E-1,7.5088924E-1,-9.2593634E-1,3.176647E-1,-6.1762416E-1,9.376111E-1,-1.0272344E0,1.8393797E-1,2.519239E-1,-7.4491076E-2,2.2291292E-2,-3.591845E-1,-8.1532694E-2,1.0597613E0,-3.2520765E-1,-1.4629482E-1,-3.452186E-1,3.114276E-1,1.9166623E-1,3.2932198E-1],"categories":[],"categories_nodes":[],"categories_segments":[],"categories_sizes":[],"default_left":[0,0,0,0,0,0,0,0,0,0,0,0,0,0,0,0,0,0,0,0,0],"id":6,"left_children":[1,3,5,7,9,11,13,15,-1,-1,-1,-1,-1,17,19,-1,-1,-1,-1,-1,-1],"loss_changes":[2.5050207E1,2.9521513E0,5.6625166E0,2.9231138E0,6.9036955E-1,1.1046729E0,2.409853E0,4.3239594E-1,0E0,0E0,0E0,0E0,0E0,2.8451235E0,1.566925E-1,0E0,0E0,0E0,0E0,0E0,0E0],"parents":[2147483647,0,0,1,1,2,2,3,3,4,4,5,5,6,6,7,7,13,13,14,14],"right_children":[2,4,6,8,10,12,14,16,-1,-1,-1,-1,-1,18,20,-1,-1,-1,-1,-1,-1],"split_conditions":[-8.3895445E-2,1.9339396E-1,-3.547591E-1,4.913891E-1,-2.9799324E-1,-5.579772E-1,-1.0366721E0,1.1346246E0,1.8393797E-1,2.519239E-1,-7.4491076E-2,2.2291292E-2,-3.591845E-1,6.3924634E-1,-1.4907974E-1,-3.2520765E-1,-1.4629482E-1,-3.452186E-1,3.114276E-1,1.9166623E-1,3.2932198E-1],"split_indices":[20,7,26,10,18,26,21,21,0,0,0,0,0,7,7,0,0,0,0,0,0],"split_type":[0,0,0,0,0,0,0,0,0,0,0,0,0,0,0,0,0,0,0,0,0],"sum_hessian":[4.158145E1,1.996384E1,2.161761E1,1.7912048E1,2.0517929E0,2.5488257E0,1.9068785E1,1.6858253E1,1.0537932E0,1.0266423E0,1.0251505E0,1.2268126E0,1.3220131E0,2.0458045E0,1.702298E1,1.5099881E1,1.7583734E0,1.0446261E0,1.0011784E0,1.6556295E0,1.5367351E1],"tree_param":{"num_deleted":"0","num_feature":"31","num_nodes":"21","size_leaf_vector":"1"}},{"base_weights":[6.3664755E-3,-5.7272184E-1,8.87777E-1,-7.192855E-1,2.424329E-1,-6.3867815E-2,1.026039E0,1.640089E-1,-8.0502385E-1,1.7480053E-1,3.1762487E-1,-3.0257422E-1,-5.2269366E-2],"categories":[],"categories_nodes":[],"categories_segments":[],"categories_sizes":[],"default_left":[0,0,0,0,0,0,0,0,0,0,0,0,0],"id":7,"left_children":[1,3,5,7,-1,-1,9,-1,11,-1,-1,-1,-1],"loss_changes":[1.7165932E1,4.2037234E0,2.0663824E0,2.0743847E0,0E0,0E0,6.827068E-2,0E0,2.1955032E0,0E0,0E0,0E0,0E0],"parents":[2147483647,0,0,1,1,2,2,3,3,6,6,8,8],"right_children":[2,4,6,8,-1,-1,10,-1,12,-1,-1,-1,-1],"split_conditions":[-1.1688515E-2,6.92686E-1,-3.547591E-1,-1.4417479E0,2.424329E-1,-6.3867815E-2,-1.0130299E0,1.640089E-1,6.499309E-1,1.7480053E-1,3.1762487E-1,-3.0257422E-1,-5.2269366E-2],"split_indices":[23,27,26,28,0,0,11,0,21,0,0,0,0],"split_type":[0,0,0,0,0,0,0,0,0,0,0,0,0],"sum_hessian":[3.330018E1,2.0130873E1,1.3169303E1,1.8271622E1,1.8592514E0,1.4587914E0,1.1710512E1,1.1016676E0,1.7169954E1,1.0209533E0,1.0689559E1,1.2904686E1,4.2652683E0],"tree_param":{"num_deleted":"0","num_feature":"31","num_nodes":"13","size_leaf_vector":"1"}},{"base_weights":[9.14892E-3,-7.274517E-1,6.304297E-1,1.4731202E-1,-8.474515E-1,-3.6565086E-1,8.354193E-1,-9.475345E-1,4.7633063E-2,-3.1706992E-1,2.0487684E-1,-1.1842147E-1,9.59555E-1,-3.1391355E-1,-8.075205E-2,1.03055894E-1,3.0684084E-1],"categories":[],"categories_nodes":[],"categories_segments":[],"categories_sizes":[],"default_left":[0,0,0,0,0,0,0,0,0,0,0,0,0,0,0,0,0],"id":8,"left_children":[1,3,5,-1,7,9,11,13,-1,-1,-1,-1,15,-1,-1,-1,-1],"loss_changes":[1.2738126E1,1.9314799E0,3.134087E0,0E0,1.1995611E0,2.0705657E0,1.9833612E0,6.643772E-1,0E0,0E0,0E0,0E0,3.8720226E-1,0E0,0E0,0E0,0E0],"parents":[2147483647,0,0,1,1,2,2,4,4,5,5,6,6,7,7,12,12],"right_children":[2,4,6,-1,8,10,12,14,-1,-1,-1,-1,16,-1,-1,-1,-1],"split_conditions":[-1.4557135E-1,-1.4417479E0,-6.620881E-1,1.4731202E-1,1.9339396E-1,4.6531236E-1,-9.9989E-1,1.2197734E0,4.7633063E-2,-3.1706992E-1,2.0487684E-1,-1.1842147E-1,-9.69502E-1,-3.1391355E-1,-8.075205E-2,1.03055894E-1,3.0684084E-1],"split_indices":[22,28,1,0,7,27,24,21,0,0,0,0,8,0,0,0,0],"split_type":[0,0,0,0,0,0,0,0,0,0,0,0,0,0,0,0,0],"sum_hessian":[2.7503397E1,1.257005E1,1.4933346E1,1.0802141E0,1.1489836E1,2.525636E0,1.240771E1,1.0460195E1,1.0296419E0,1.5220246E0,1.0036113E0,1.1033962E0,1.1304314E1,9.050049E0,1.4101458E0,1.1533245E0,1.015099E1],"tree_param":{"num_deleted":"0","num_feature":"31","num_nodes":"17","size_leaf_vector":"1"}},{"base_weights":[4.7155763E-3,-5.479211E-1,7.239109E-1,-2.3766758E-2,-9.0487665E-1,-6.660443E-2,9.17188E-1,-2.6840532E-1,8.608518E-1,-3.126887E-1,-1.7465847E-2,8.966924E-2,3.1082577E-1,7.680161E-2,3.949689E-1],"categories":[],"categories_nodes":[],"categories_segments":[],"categories_sizes":[],"default_left":[0,0,0,0,0,0,0,0,0,0,0,0,0,0,0],"id":9,"left_children":[1,3,5,7,9,-1,11,-1,13,-1,-1,-1,-1,-1,-1],"loss_changes":[9.13155E0,2.426132E0,1.8597021E0,4.3144245E0,8.87239E-1,0E0,5.5907774E-1,0E0,7.086444E-1,0E0,0E0,0E0,0E0,0E0,0E0],"parents":[2147483647,0,0,1,1,2,2,3,3,4,4,6,6,8,8],"right_children":[2,4,6,8,10,-1,12,-1,14,-1,-1,-1,-1,-1,-1],"split_conditions":[5.614986E-2,-7.3306304E-1,-8.1728804E-1,-6.555946E-1,8.068794E-2,-6.660443E-2,-1.0246584E-1,-2.6840532E-1,-1.10325E-1,-3.126887E-1,-1.7465847E-2,8.966924E-2,3.1082577E-1,7.680161E-2,3.949689E-1],"split_indices":[7,15,1,27,23,0,20,0,11,0,0,0,0,0,0],"split_type":[0,0,0,0,0,0,0,0,0,0,0,0,0,0,0],"sum_hessian":[2.2643843E1,1.2826055E1,9.817788E0,5.2689E0,7.5571547E0,1.6605294E0,8.157259E0,2.6546965E0,2.6142032E0,6.467805E0,1.0893496E0,1.4109932E0,6.746266E0,1.2354547E0,1.3787485E0],"tree_param":{"num_deleted":"0","num_feature":"31","num_nodes":"15","size_leaf_vector":"1"}},{"base_weights":[3.869689E-3,-7.144311E-1,5.0024974E-1,-3.0726525E-1,8.4692836E-2,5.8120206E-2,3.027402E-1,-5.4475087E-1,6.869881E-1,-3.0230075E-1,1.14276685E-1,3.1507963E-1,8.947588E-2],"categories":[],"categories_nodes":[],"categories_segments":[],"categories_sizes":[],"default_left":[0,0,0,0,0,0,0,0,0,0,0,0,0],"id":10,"left_children":[1,3,5,-1,-1,7,-1,9,11,-1,-1,-1,-1],"loss_changes":[6.8083606E0,2.4580672E0,2.5298135E0,0E0,0E0,2.4200542E0,0E0,1.4640936E0,3.8698077E-1,0E0,0E0,0E0,0E0],"parents":[2147483647,0,0,1,1,2,2,5,5,7,7,8,8],"right_children":[2,4,6,-1,-1,8,-1,10,12,-1,-1,-1,-1],"split_conditions":[-3.1297594E-1,4.916221E-3,1.4815985E-1,-3.0726525E-1,8.4692836E-2,2.7003586E-1,3.027402E-1,8.303203E-1,-8.6472735E-2,-3.0230075E-1,1.14276685E-1,3.1507963E-1,8.947588E-2],"split_indices":[26,13,23,0,0,21,0,4,16,0,0,0,0],"split_type":[0,0,0,0,0,0,0,0,0,0,0,0,0],"sum_hessian":[1.8764252E1,7.6373835E0,1.1126867E1,5.82388E0,1.8135034E0,6.053832E0,5.0730357E0,3.101202E0,2.9526298E0,2.0583737E0,1.0428284E0,1.3791671E0,1.5734628E0],"tree_param":{"num_deleted":"0","num_feature":"31","num_nodes":"13","size_leaf_vector":"1"}},{"base_weights":[1.9745408E-3,-6.5387964E-1,4.508115E-1,-3.0070662E-1,6.1536305E-2,-4.002488E-3,2.8142628E-1,-5.9478253E-1,4.6832415E-1,-4.0948E-2,-2.8483737E-1,-7.585022E-2,2.7920943E-1],"categories":[],"categories_nodes":[],"categories_segments":[],"categories_sizes":[],"default_left":[0,0,0,0,0,0,0,0,0,0,0,0,0],"id":11,"left_children":[1,3,5,-1,-1,7,-1,9,11,-1,-1,-1,-1],"loss_changes":[4.6176915E0,1.9426255E0,2.0658684E0,0E0,0E0,1.4362261E0,0E0,3.4908456E-1,9.932677E-1,0E0,0E0,0E0,0E0],"parents":[2147483647,0,0,1,1,2,2,5,5,7,7,8,8],"right_children":[2,4,6,-1,-1,8,-1,10,12,-1,-1,-1,-1],"split_conditions":[-3.1297594E-1,4.916221E-3,-2.4405733E-2,-3.0070662E-1,6.1536305E-2,2.4558905E-1,2.8142628E-1,-2.703026E-1,-4.805185E-1,-4.0948E-2,-2.8483737E-1,-7.585022E-2,2.7920943E-1],"split_indices":[26,13,23,0,0,24,0,11,13,0,0,0,0],"split_type":[0,0,0,0,0,0,0,0,0,0,0,0,0],"sum_hessian":[1.5356026E1,6.207426E0,9.1486E0,4.397241E0,1.8101851E0,4.815665E0,4.332935E0,2.1215258E0,2.6941388E0,1.0269668E0,1.094559E0,1.0808965E0,1.6132423E0],"tree_param":{"num_deleted":"0","num_feature":"31","num_nodes":"13","size_leaf_vector":"1"}},{"base_weights":[-1.3305637E-3,-4.201653E-1,5.9436595E-1,1.4441994E-1,-8.3412236E-1,-7.8774676E-2,8.420867E-1,-2.3725688E-1,2.373869E-1,-2.99565E-1,-7.30743E-2,1.09284066E-1,2.9448158E-1],"categories":[],"categories_nodes":[],"categories_segments":[],"categories_sizes":[],"default_left":[0,0,0,0,0,0,0,0,0,0,0,0,0],"id":12,"left_children":[1,3,5,7,9,-1,11,-1,-1,-1,-1,-1,-1],"loss_changes":[3.2754495E0,1.8225608E0,1.1876509E0,2.1614761E0,3.9275265E-1,0E0,2.2223186E-1,0E0,0E0,0E0,0E0,0E0,0E0],"parents":[2147483647,0,0,1,1,2,2,3,3,4,4,6,6],"right_children":[2,4,6,8,10,-1,12,-1,-1,-1,-1,-1,-1],"split_conditions":[8.5432E-2,-7.3306304E-1,-8.1728804E-1,-5.9932846E-1,9.768171E-2,-7.8774676E-2,-6.532506E-2,-2.3725688E-1,2.373869E-1,-2.99565E-1,-7.30743E-2,1.09284066E-1,2.9448158E-1],"split_indices":[7,15,1,16,20,0,20,0,0,0,0,0,0],"split_type":[0,0,0,0,0,0,0,0,0,0,0,0,0],"sum_hessian":[1.2797637E1,7.54406E0,5.2535768E0,3.2358603E0,4.3082E0,1.1748711E0,4.078706E0,1.307228E0,1.9286324E0,3.2789474E0,1.0292524E0,1.058731E0,3.019975E0],"tree_param":{"num_deleted":"0","num_feature":"31","num_nodes":"13","size_leaf_vector":"1"}},{"base_weights":[-4.05332E-3,-2.731892E-1,2.575599E-1,-2.8926712E-1,-3.7355334E-2,-5.576112E-1,3.807964E-1,2.0612188E-2,-2.8833687E-1,1.42897E-2,2.8935117E-1],"categories":[],"categories_nodes":[],"categories_segments":[],"categories_sizes":[],"default_left":[0,0,0,0,0,0,0,0,0,0,0],"id":13,"left_children":[1,3,-1,-1,5,7,9,-1,-1,-1,-1],"loss_changes":[2.6126544E0,1.3910222E0,0E0,0E0,1.4645275E0,7.690322E-1,7.184588E-1,0E0,0E0,0E0,0E0],"parents":[2147483647,0,0,1,1,4,4,5,5,6,6],"right_children":[2,4,-1,-1,6,8,10,-1,-1,-1,-1],"split_conditions":[4.098426E-1,-6.305774E-1,2.575599E-1,-2.8926712E-1,-3.7942946E-1,-9.393037E-1,-1.2954368E-1,2.0612188E-2,-2.8833687E-1,1.42897E-2,2.8935117E-1],"split_indices":[22,21,0,0,4,9,13,0,0,0,0],"split_type":[0,0,0,0,0,0,0,0,0,0,0],"sum_hessian":[1.0924008E1,8.41337E0,2.510638E0,2.0093982E0,6.4039717E0,2.8301756E0,3.573796E0,1.1616713E0,1.6685042E0,2.390404E0,1.183392E0],"tree_param":{"num_deleted":"0","num_feature":"31","num_nodes":"11","size_leaf_vector":"1"}},{"base_weights":[-7.068063E-3,-5.5902314E-1,3.892575E-1,-2.878076E-1,2.842925E-2,-1.7044897E-1,7.219033E-1,-2.655555E-1,1.5683697E-1,1.1813917E-1,2.82293E-1],"categories":[],"categories_nodes":[],"categories_segments":[],"categories_sizes":[],"default_left":[0,0,0,0,0,0,0,0,0,0,0],"id":14,"left_children":[1,3,5,-1,-1,7,9,-1,-1,-1,-1],"loss_changes":[2.1298106E0,1.0810295E0,1.0761003E0,0E0,0E0,1.1894865E0,1.9501984E-1,0E0,0E0,0E0,0E0],"parents":[2147483647,0,0,1,1,2,2,5,5,6,6],"right_children":[2,4,6,-1,-1,8,10,-1,-1,-1,-1],"split_conditions":[-3.1297594E-1,4.916221E-3,-6.400978E-2,-2.878076E-1,2.842925E-2,-1.7804119E-1,1.7276916E-1,-2.655555E-1,1.5683697E-1,1.1813917E-1,2.82293E-1],"split_indices":[26,13,21,0,0,13,7,0,0,0,0],"split_type":[0,0,0,0,0,0,0,0,0,0,0],"sum_hessian":[9.404982E0,3.9035E0,5.5014815E0,2.3740911E0,1.529409E0,2.0796525E0,3.421829E0,1.0021718E0,1.0774809E0,1.55747E0,1.8643589E0],"tree_param":{"num_deleted":"0","num_feature":"31","num_nodes":"11","size_leaf_vector":"1"}},{"base_weights":[-9.919274E-3,-2.135722E-1,2.634286E-1,-2.6846486E-1,3.0875292E-2,5.2280563E-1,-3.991773E-1,2.51781E-1,1.3830159E-2,-2.7869964E-1,1.1732418E-1],"categories":[],"categories_nodes":[],"categories_segments":[],"categories_sizes":[],"default_left":[0,0,0,0,0,0,0,0,0,0,0],"id":15,"left_children":[1,3,-1,-1,5,7,9,-1,-1,-1,-1],"loss_changes":[1.5189062E0,1.1430225E0,0E0,0E0,1.1316695E0,3.6847997E-1,1.2579365E0,0E0,0E0,0E0,0E0],"parents":[2147483647,0,0,1,1,4,4,5,5,6,6],"right_children":[2,4,-1,-1,6,8,10,-1,-1,-1,-1],"split_conditions":[8.5079354E-1,-5.5321646E-1,2.634286E-1,-2.6846486E-1,-5.955332E-1,-5.507305E-1,2.4830703E-2,2.51781E-1,1.3830159E-2,-2.7869964E-1,1.1732418E-1],"split_indices":[27,1,0,0,15,18,7,0,0,0,0],"split_type":[0,0,0,0,0,0,0,0,0,0,0],"sum_hessian":[8.065709E0,6.6643414E0,1.4013673E0,1.6446085E0,5.019733E0,2.3259742E0,2.6937587E0,1.320854E0,1.0051204E0,1.5960478E0,1.097711E0],"tree_param":{"num_deleted":"0","num_feature":"31","num_nodes":"11","size_leaf_vector":"1"}},{"base_weights":[-9.039214E-3,-2.656462E-1,1.7735341E-1,-2.041278E-1,4.0365484E-1,2.8226553E-3,2.5622723E-1,-1.7121352E-1,1.7991619E-1],"categories":[],"categories_nodes":[],"categories_segments":[],"categories_sizes":[],"default_left":[0,0,0,0,0,0,0,0,0],"id":16,"left_children":[1,-1,3,-1,5,7,-1,-1,-1],"loss_changes":[1.1890204E0,0E0,1.2105634E0,0E0,8.7526476E-1,9.9352705E-1,0E0,0E0,0E0],"parents":[2147483647,0,0,2,2,4,4,5,5],"right_children":[2,-1,4,-1,6,8,-1,-1,-1],"split_conditions":[-6.6237366E-1,-2.656462E-1,-9.9989E-1,-2.041278E-1,-1.1874092E-1,5.582321E-1,2.5622723E-1,-1.7121352E-1,1.7991619E-1],"split_indices":[22,0,24,0,13,21,0,0,0],"split_type":[0,0,0,0,0,0,0,0,0],"sum_hessian":[6.948817E0,1.1107781E0,5.838039E0,1.1483042E0,4.6897345E0,2.5709682E0,2.1187663E0,1.3138951E0,1.257073E0],"tree_param":{"num_deleted":"0","num_feature":"31","num_nodes":"9","size_leaf_vector":"1"}},{"base_weights":[-1.2784414E-2,-4.6575248E-1,3.11312E-1,-2.70972E-1,2.5054064E-2,8.682539E-3,2.6516494E-1,-1.5261205E-1,1.4987929E-1],"categories":[],"categories_nodes":[],"categories_segments":[],"categories_sizes":[],"default_left":[0,0,0,0,0,0,0,0,0],"id":17,"left_children":[1,3,5,-1,-1,7,-1,-1,-1],"loss_changes":[9.353275E-1,6.5172017E-1,6.415806E-1,0E0,0E0,7.022904E-1,0E0,0E0,0E0],"parents":[2147483647,0,0,1,1,2,2,5,5],"right_children":[2,4,6,-1,-1,8,-1,-1,-1],"split_conditions":[-3.1297594E-1,4.916221E-3,1.4815985E-1,-2.70972E-1,2.5054064E-2,2.7003586E-1,2.6516494E-1,-1.5261205E-1,1.4987929E-1],"split_indices":[26,13,23,0,0,21,0,0,0],"split_type":[0,0,0,0,0,0,0,0,0],"sum_hessian":[6.040953E0,2.4908023E0,3.5501509E0,1.3282182E0,1.1625842E0,2.4338002E0,1.1163505E0,1.180921E0,1.2528793E0],"tree_param":{"num_deleted":"0","num_feature":"31","num_nodes":"9","size_leaf_vector":"1"}},{"base_weights":[-1.117084E-2,-2.0792302E-1,1.9809438E-1,8.076238E-2,-4.748358E-1,-2.243208E-1,-2.4876682E-2],"categories":[],"categories_nodes":[],"categories_segments":[],"categories_sizes":[],"default_left":[0,0,0,0,0,0,0],"id":18,"left_children":[1,3,-1,-1,5,-1,-1],"loss_changes":[7.477111E-1,5.7844293E-1,0E0,0E0,2.953741E-1,0E0,0E0],"parents":[2147483647,0,0,1,1,4,4],"right_children":[2,4,-1,-1,6,-1,-1],"split_conditions":[5.4662484E-1,-7.8637683E-1,1.9809438E-1,8.076238E-2,-1.2685E-1,-2.243208E-1,-2.4876682E-2],"split_indices":[27,5,0,0,23,0,0],"split_type":[0,0,0,0,0,0,0],"sum_hessian":[5.3257017E0,4.2085204E0,1.1171817E0,1.5077233E0,2.7007968E0,1.5018526E0,1.1989442E0],"tree_param":{"num_deleted":"0","num_feature":"31","num_nodes":"7","size_leaf_vector":"1"}},{"base_weights":[-9.427073E-3,-3.5727036E-1,3.5342607E-1,-2.193779E-1,5.7507712E-2,3.6755465E-3,2.2594193E-1],"categories":[],"categories_nodes":[],"categories_segments":[],"categories_sizes":[],"default_left":[0,0,0,0,0,0,0],"id":19,"left_children":[1,3,5,-1,-1,-1,-1],"loss_changes":[6.673869E-1,5.7792866E-1,3.506262E-1,0E0,0E0,0E0,0E0],"parents":[2147483647,0,0,1,1,2,2],"right_children":[2,4,6,-1,-1,-1,-1],"split_conditions":[-1.2838659E-1,1.8856569E-1,-1.2685E-1,-2.193779E-1,5.7507712E-2,3.6755465E-3,2.2594193E-1],"split_indices":[28,17,23,0,0,0,0],"split_type":[0,0,0,0,0,0,0],"sum_hessian":[4.956427E0,2.5334237E0,2.4230034E0,1.4753633E0,1.0580605E0,1.4007913E0,1.022212E0],"tree_param":{"num_deleted":"0","num_feature":"31","num_nodes":"7","size_leaf_vector":"1"}},{"base_weights":[-4.9452E-3,-1.565634E-1,2.2063786E-1,-5.6548715E-2,1.6904728E-1],"categories":[],"categories_nodes":[],"categories_segments":[],"categories_sizes":[],"default_left":[0,0,0,0,0],"id":20,"left_children":[1,-1,3,-1,-1],"loss_changes":[5.7587636E-1,0E0,5.0013924E-1,0E0,0E0],"parents":[2147483647,0,0,2,2],"right_children":[2,-1,4,-1,-1],"split_conditions":[-4.144302E-1,-1.565634E-1,-3.7942946E-1,-5.6548715E-2,1.6904728E-1],"split_indices":[21,0,4,0,0],"split_type":[0,0,0,0,0],"sum_hessian":[4.6065E0,1.3349329E0,3.2715673E0,1.5241054E0,1.7474619E0],"tree_param":{"num_deleted":"0","num_feature":"31","num_nodes":"5","size_leaf_vector":"1"}},{"base_weights":[-4.6354337E-3,-1.1293431E-1,2.607769E-1,-5.3453222E-2,1.6710532E-1],"categories":[],"categories_nodes":[],"categories_segments":[],"categories_sizes":[],"default_left":[0,0,0,0,0],"id":21,"left_children":[1,-1,3,-1,-1],"loss_changes":[4.640917E-1,0E0,3.7357378E-1,0E0,0E0],"parents":[2147483647,0,0,2,2],"right_children":[2,-1,4,-1,-1],"split_conditions":[-3.1297594E-1,-1.1293431E-1,-8.3895445E-2,-5.3453222E-2,1.6710532E-1],"split_indices":[26,0,20,0,0],"split_type":[0,0,0,0,0],"sum_hessian":[4.371257E0,1.7935874E0,2.5776696E0,1.0637202E0,1.5139493E0],"tree_param":{"num_deleted":"0","num_feature":"31","num_nodes":"5","size_leaf_vector":"1"}},{"base_weights":[-1.9145864E-3,-1.3618997E-1,1.8648162E-1,1.5778323E-1,-4.057947E-2],"categories":[],"categories_nodes":[],"categories_segments":[],"categories_sizes":[],"default_left":[0,0,0,0,0],"id":22,"left_children":[1,-1,3,-1,-1],"loss_changes":[3.8290423E-1,0E0,3.584929E-1,0E0,0E0],"parents":[2147483647,0,0,2,2],"right_children":[2,-1,4,-1,-1],"split_conditions":[-4.144302E-1,-1.3618997E-1,-5.955332E-1,1.5778323E-1,-4.057947E-2],"split_indices":[21,0,15,0,0],"split_type":[0,0,0,0,0],"sum_hessian":[4.1623936E0,1.1575121E0,3.0048814E0,1.4127432E0,1.5921382E0],"tree_param":{"num_deleted":"0","num_feature":"31","num_nodes":"5","size_leaf_vector":"1"}},{"base_weights":[-1.8138909E-3,-2.6758066E-1,9.826705E-2,-2.0806174E-1,3.6554083E-2],"categories":[],"categories_nodes":[],"categories_segments":[],"categories_sizes":[],"default_left":[0,0,0,0,0],"id":23,"left_children":[1,3,-1,-1,-1],"loss_changes":[3.8074332E-1,4.1421503E-1,0E0,0E0,0E0],"parents":[2147483647,0,0,1,1],"right_children":[2,4,-1,-1,-1],"split_conditions":[-1.2954368E-1,-1.2838659E-1,9.826705E-2,-2.0806174E-1,3.6554083E-2],"split_indices":[13,28,0,0,0],"split_type":[0,0,0,0,0],"sum_hessian":[4.0190005E0,2.2433252E0,1.7756753E0,1.0110292E0,1.232296E0],"tree_param":{"num_deleted":"0","num_feature":"31","num_nodes":"5","size_leaf_vector":"1"}},{"base_weights":[-7.398999E-3,-2.3573828E-1,1.11880116E-1,5.5727158E-2,-2.2684787E-1],"categories":[],"categories_nodes":[],"categories_segments":[],"categories_sizes":[],"default_left":[0,0,0,0,0],"id":24,"left_children":[1,3,-1,-1,-1],"loss_changes":[3.6069468E-1,5.930915E-1,0E0,0E0,0E0],"parents":[2147483647,0,0,1,1],"right_children":[2,4,-1,-1,-1],"split_conditions":[8.5432E-2,-6.072735E-1,1.11880116E-1,5.5727158E-2,-2.2684787E-1],"split_indices":[7,15,0,0,0],"split_type":[0,0,0,0,0],"sum_hessian":[3.8219182E0,2.4293146E0,1.3926038E0,1.399868E0,1.0294466E0],"tree_param":{"num_deleted":"0","num_feature":"31","num_nodes":"5","size_leaf_vector":"1"}},{"base_weights":[-1.1659249E-2,-1.02300584E-1,2.1882278E-1,1.4660534E-1,-3.4895528E-2],"categories":[],"categories_nodes":[],"categories_segments":[],"categories_sizes":[],"default_left":[0,0,0,0,0],"id":25,"left_children":[1,-1,3,-1,-1],"loss_changes":[2.9912633E-1,0E0,2.1968128E-1,0E0,0E0],"parents":[2147483647,0,0,2,2],"right_children":[2,-1,4,-1,-1],"split_conditions":[-3.1297594E-1,-1.02300584E-1,-4.2077437E-2,1.4660534E-1,-3.4895528E-2],"split_indices":[26,0,9,0,0],"split_type":[0,0,0,0,0],"sum_hessian":[3.610555E0,1.4557875E0,2.1547675E0,1.1534591E0,1.0013083E0],"tree_param":{"num_deleted":"0","num_feature":"31","num_nodes":"5","size_leaf_vector":"1"}},{"base_weights":[-7.2414866E-3,-1.9712624E-1,1.17045E-1,4.4388834E-2,-1.60093E-1],"categories":[],"categories_nodes":[],"categories_segments":[],"categories_sizes":[],"default_left":[0,0,0,0,0],"id":26,"left_children":[1,3,-1,-1,-1],"loss_changes":[2.8795326E-1,3.133272E-1,0E0,0E0,0E0],"parents":[2147483647,0,0,1,1],"right_children":[2,4,-1,-1,-1],"split_conditions":[1.2307429E-1,-2.9799324E-1,1.17045E-1,4.4388834E-2,-1.60093E-1],"split_indices":[3,18,0,0,0],"split_type":[0,0,0,0,0],"sum_hessian":[3.4845912E0,2.416272E0,1.0683193E0,1.2371054E0,1.1791666E0],"tree_param":{"num_deleted":"0","num_feature":"31","num_nodes":"5","size_leaf_vector":"1"}},{"base_weights":[-6.3072955E-3,-8.348205E-2,8.097167E-2],"categories":[],"categories_nodes":[],"categories_segments":[],"categories_sizes":[],"default_left":[0,0,0],"id":27,"left_children":[1,-1,-1],"loss_changes":[2.7542266E-1,0E0,0E0],"parents":[2147483647,0,0],"right_children":[2,-1,-1],"split_conditions":[-1.2838659E-1,-8.348205E-2,8.097167E-2],"split_indices":[28,0,0],"split_type":[0,0,0],"sum_hessian":[3.3351877E0,1.6819255E0,1.6532623E0],"tree_param":{"num_deleted":"0","num_feature":"31","num_nodes":"3","size_leaf_vector":"1"}},{"base_weights":[-4.6002795E-3,-7.478249E-2,8.6138666E-2],"categories":[],"categories_nodes":[],"categories_segments":[],"categories_sizes":[],"default_left":[0,0,0],"id":28,"left_children":[1,-1,-1],"loss_changes":[2.5700986E-1,0E0,0E0],"parents":[2147483647,0,0],"right_children":[2,-1,-1],"split_conditions":[-1.2954368E-1,-7.478249E-2,8.6138666E-2],"split_indices":[13,0,0],"split_type":[0,0,0],"sum_hessian":[3.2696638E0,1.7934265E0,1.4762374E0],"tree_param":{"num_deleted":"0","num_feature":"31","num_nodes":"3","size_leaf_vector":"1"}},{"base_weights":[-2.5607434E-3,-7.344881E-2,8.5759446E-2],"categories":[],"categories_nodes":[],"categories_segments":[],"categories_sizes":[],"default_left":[0,0,0],"id":29,"left_children":[1,-1,-1],"loss_changes":[2.4712843E-1,0E0,0E0],"parents":[2147483647,0,0],"right_children":[2,-1,-1],"split_conditions":[1.7645516E-1,-7.344881E-2,8.5759446E-2],"split_indices":[1,0,0],"split_type":[0,0,0],"sum_hessian":[3.2059138E0,1.7580768E0,1.4478371E0],"tree_param":{"num_deleted":"0","num_feature":"31","num_nodes":"3","size_leaf_vector":"1"}},{"base_weights":[-1.027365E-3,-1.0138081E-1,7.076564E-2],"categories":[],"categories_nodes":[],"categories_segments":[],"categories_sizes":[],"default_left":[0,0,0],"id":30,"left_children":[1,-1,-1],"loss_changes":[2.7778256E-1,0E0,0E0],"parents":[2147483647,0,0],"right_children":[2,-1,-1],"split_conditions":[-3.7942946E-1,-1.0138081E-1,7.076564E-2],"split_indices":[4,0,0],"split_type":[0,0,0],"sum_hessian":[3.1478636E0,1.2724504E0,1.8754133E0],"tree_param":{"num_deleted":"0","num_feature":"31","num_nodes":"3","size_leaf_vector":"1"}},{"base_weights":[-2.5219878E-3,-8.08989E-2,5.820507E-2],"categories":[],"categories_nodes":[],"categories_segments":[],"categories_sizes":[],"default_left":[0,0,0],"id":31,"left_children":[1,-1,-1],"loss_changes":[1.7964551E-1,0E0,0E0],"parents":[2147483647,0,0],"right_children":[2,-1,-1],"split_conditions":[-3.7639827E-1,-8.08989E-2,5.820507E-2],"split_indices":[13,0,0],"split_type":[0,0,0],"sum_hessian":[3.089433E0,1.285807E0,1.803626E0],"tree_param":{"num_deleted":"0","num_feature":"31","num_nodes":"3","size_leaf_vector":"1"}},{"base_weights":[-3.0579618E-3,-5.86206E-2,9.566575E-2],"categories":[],"categories_nodes":[],"categories_segments":[],"categories_sizes":[],"default_left":[0,0,0],"id":32,"left_children":[1,-1,-1],"loss_changes":[2.0890003E-1,0E0,0E0],"parents":[2147483647,0,0],"right_children":[2,-1,-1],"split_conditions":[6.499309E-1,-5.86206E-2,9.566575E-2],"split_indices":[21,0,0],"split_type":[0,0,0],"sum_hessian":[3.043558E0,1.9481716E0,1.0953863E0],"tree_param":{"num_deleted":"0","num_feature":"31","num_nodes":"3","size_leaf_vector":"1"}},{"base_weights":[-0E0,-8.485117E-2,5.871548E-2],"categories":[],"categories_nodes":[],"categories_segments":[],"categories_sizes":[],"default_left":[0,0,0],"id":33,"left_children":[1,-1,-1],"loss_changes":[1.8418726E-1,0E0,0E0],"parents":[2147483647,0,0],"right_children":[2,-1,-1],"split_conditions":[-4.440885E-1,-8.485117E-2,5.871548E-2],"split_indices":[4,0,0],"split_type":[0,0,0],"sum_hessian":[2.9950902E0,1.1962212E0,1.798869E0],"tree_param":{"num_deleted":"0","num_feature":"31","num_nodes":"3","size_leaf_vector":"1"}},{"base_weights":[-1.3854365E-3,-7.089353E-2,5.8597982E-2],"categories":[],"categories_nodes":[],"categories_segments":[],"categories_sizes":[],"default_left":[0,0,0],"id":34,"left_children":[1,-1,-1],"loss_changes":[1.5194719E-1,0E0,0E0],"parents":[2147483647,0,0],"right_children":[2,-1,-1],"split_conditions":[-1.4557135E-1,-7.089353E-2,5.8597982E-2],"split_indices":[22,0,0],"split_type":[0,0,0],"sum_hessian":[2.9560685E0,1.334575E0,1.6214936E0],"tree_param":{"num_deleted":"0","num_feature":"31","num_nodes":"3","size_leaf_vector":"1"}},{"base_weights":[-1.6635037E-3,-5.9680406E-2,7.151691E-2],"categories":[],"categories_nodes":[],"categories_segments":[],"categories_sizes":[],"default_left":[0,0,0],"id":35,"left_children":[1,-1,-1],"loss_changes":[1.5343793E-1,0E0,0E0],"parents":[2147483647,0,0],"right_children":[2,-1,-1],"split_conditions":[1.7645516E-1,-5.9680406E-2,7.151691E-2],"split_indices":[1,0,0],"split_type":[0,0,0],"sum_hessian":[2.9096894E0,1.6152854E0,1.2944039E0],"tree_param":{"num_deleted":"0","num_feature":"31","num_nodes":"3","size_leaf_vector":"1"}},{"base_weights":[-3.7996453E-4,-7.757492E-2,5.248424E-2],"categories":[],"categories_nodes":[],"categories_segments":[],"categories_sizes":[],"default_left":[0,0,0],"id":36,"left_children":[1,-1,-1],"loss_changes":[1.4511968E-1,0E0,0E0],"parents":[2147483647,0,0],"right_children":[2,-1,-1],"split_conditions":[-4.440885E-1,-7.757492E-2,5.248424E-2],"split_indices":[4,0,0],"split_type":[0,0,0],"sum_hessian":[2.872571E0,1.1324974E0,1.7400734E0],"tree_param":{"num_deleted":"0","num_feature":"31","num_nodes":"3","size_leaf_vector":"1"}},{"base_weights":[-1.7040435E-3,8.1847474E-2,-5.633858E-2],"categories":[],"categories_nodes":[],"categories_segments":[],"categories_sizes":[],"default_left":[0,0,0],"id":37,"left_children":[1,-1,-1],"loss_changes":[1.6206537E-1,0E0,0E0],"parents":[2147483647,0,0],"right_children":[2,-1,-1],"split_conditions":[-5.80271E-1,8.1847474E-2,-5.633858E-2],"split_indices":[5,0,0],"split_type":[0,0,0],"sum_hessian":[2.8425674E0,1.1148039E0,1.7277635E0],"tree_param":{"num_deleted":"0","num_feature":"31","num_nodes":"3","size_leaf_vector":"1"}},{"base_weights":[-0E0,-8.002785E-2,5.5406947E-2],"categories":[],"categories_nodes":[],"categories_segments":[],"categories_sizes":[],"default_left":[0,0,0],"id":38,"left_children":[1,-1,-1],"loss_changes":[1.549921E-1,0E0,0E0],"parents":[2147483647,0,0],"right_children":[2,-1,-1],"split_conditions":[-3.1297594E-1,-8.002785E-2,5.5406947E-2],"split_indices":[26,0,0],"split_type":[0,0,0],"sum_hessian":[2.814977E0,1.1212698E0,1.6937072E0],"tree_param":{"num_deleted":"0","num_feature":"31","num_nodes":"3","size_leaf_vector":"1"}},{"base_weights":[-1.202475E-3,-6.2691115E-2,7.577734E-2],"categories":[],"categories_nodes":[],"categories_segments":[],"categories_sizes":[],"default_left":[0,0,0],"id":39,"left_children":[1,-1,-1],"loss_changes":[1.6356985E-1,0E0,0E0],"parents":[2147483647,0,0],"right_children":[2,-1,-1],"split_conditions":[-1.0472032E-1,-6.2691115E-2,7.577734E-2],"split_indices":[13,0,0],"split_type":[0,0,0],"sum_hessian":[2.7716453E0,1.5425087E0,1.2291367E0],"tree_param":{"num_deleted":"0","num_feature":"31","num_nodes":"3","size_leaf_vector":"1"}},{"base_weights":[-0E0,7.313365E-2,-4.917699E-2],"categories":[],"categories_nodes":[],"categories_segments":[],"categories_sizes":[],"default_left":[0,0,0],"id":40,"left_children":[1,-1,-1],"loss_changes":[1.2233074E-1,0E0,0E0],"parents":[2147483647,0,0],"right_children":[2,-1,-1],"split_conditions":[-5.80271E-1,7.313365E-2,-4.917699E-2],"split_indices":[5,0,0],"split_type":[0,0,0],"sum_hessian":[2.731982E0,1.0637324E0,1.6682495E0],"tree_param":{"num_deleted":"0","num_feature":"31","num_nodes":"3","size_leaf_vector":"1"}},{"base_weights":[8.3727256E-4,-7.9717636E-2,5.412078E-2],"categories":[],"categories_nodes":[],"categories_segments":[],"categories_sizes":[],"default_left":[0,0,0],"id":41,"left_children":[1,-1,-1],"loss_changes":[1.455438E-1,0E0,0E0],"parents":[2147483647,0,0],"right_children":[2,-1,-1],"split_conditions":[-3.1297594E-1,-7.9717636E-2,5.412078E-2],"split_indices":[26,0,0],"split_type":[0,0,0],"sum_hessian":[2.7113023E0,1.0568159E0,1.6544863E0],"tree_param":{"num_deleted":"0","num_feature":"31","num_nodes":"3","size_leaf_vector":"1"}},{"base_weights":[-4.4192918E-4,-7.191938E-2,5.005544E-2],"categories":[],"categories_nodes":[],"categories_segments":[],"categories_sizes":[],"default_left":[0,0,0],"id":42,"left_children":[1,-1,-1],"loss_changes":[1.2025111E-1,0E0,0E0],"parents":[2147483647,0,0],"right_children":[2,-1,-1],"split_conditions":[-3.7639827E-1,-7.191938E-2,5.005544E-2],"split_indices":[13,0,0],"split_type":[0,0,0],"sum_hessian":[2.6708863E0,1.0722158E0,1.5986705E0],"tree_param":{"num_deleted":"0","num_feature":"31","num_nodes":"3","size_leaf_vector":"1"}},{"base_weights":[-1.6285054E-3,5.954625E-2,-5.8304176E-2],"categories":[],"categories_nodes":[],"categories_segments":[],"categories_sizes":[],"default_left":[0,0,0],"id":43,"left_children":[1,-1,-1],"loss_changes":[1.1460934E-1,0E0,0E0],"parents":[2147483647,0,0],"right_children":[2,-1,-1],"split_conditions":[-4.1607353E-1,5.954625E-2,-5.8304176E-2],"split_indices":[15,0,0],"split_type":[0,0,0],"sum_hessian":[2.6407177E0,1.2902244E0,1.3504934E0],"tree_param":{"num_deleted":"0","num_feature":"31","num_nodes":"3","size_leaf_vector":"1"}},{"base_weights":[-9.704474E-4,-7.622192E-2,5.007888E-2],"categories":[],"categories_nodes":[],"categories_segments":[],"categories_sizes":[],"default_left":[0,0,0],"id":44,"left_children":[1,-1,-1],"loss_changes":[1.25524E-1,0E0,0E0],"parents":[2147483647,0,0],"right_children":[2,-1,-1],"split_conditions":[-3.1297594E-1,-7.622192E-2,5.007888E-2],"split_indices":[26,0,0],"split_type":[0,0,0],"sum_hessian":[2.620701E0,1.0139236E0,1.6067773E0],"tree_param":{"num_deleted":"0","num_feature":"31","num_nodes":"3","size_leaf_vector":"1"}},{"base_weights":[-2.3353172E-3,-5.0773185E-2,6.1485503E-2],"categories":[],"categories_nodes":[],"categories_segments":[],"categories_sizes":[],"default_left":[0,0,0],"id":45,"left_children":[1,-1,-1],"loss_changes":[1.00882426E-1,0E0,0E0],"parents":[2147483647,0,0],"right_children":[2,-1,-1],"split_conditions":[1.7645516E-1,-5.0773185E-2,6.1485503E-2],"split_indices":[1,0,0],"split_type":[0,0,0],"sum_hessian":[2.5854478E0,1.4520319E0,1.1334159E0],"tree_param":{"num_deleted":"0","num_feature":"31","num_nodes":"3","size_leaf_vector":"1"}},{"base_weights":[-8.46498E-4,-7.385987E-2,4.968178E-2],"categories":[],"categories_nodes":[],"categories_segments":[],"categories_sizes":[],"default_left":[0,0,0],"id":46,"left_children":[1,-1,-1],"loss_changes":[1.1815232E-1,0E0,0E0],"parents":[2147483647,0,0],"right_children":[2,-1,-1],"split_conditions":[-3.7942946E-1,-7.385987E-2,4.968178E-2],"split_indices":[4,0,0],"split_type":[0,0,0],"sum_hessian":[2.5600283E0,1.0054152E0,1.554613E0],"tree_param":{"num_deleted":"0","num_feature":"31","num_nodes":"3","size_leaf_vector":"1"}},{"base_weights":[-2.1069176E-3,-5.472991E-2,5.977601E-2],"categories":[],"categories_nodes":[],"categories_segments":[],"categories_sizes":[],"default_left":[0,0,0],"id":47,"left_children":[1,-1,-1],"loss_changes":[1.04033716E-1,0E0,0E0],"parents":[2147483647,0,0],"right_children":[2,-1,-1],"split_conditions":[-1.2954368E-1,-5.472991E-2,5.977601E-2],"split_indices":[13,0,0],"split_type":[0,0,0],"sum_hessian":[2.5343223E0,1.3481258E0,1.1861964E0],"tree_param":{"num_deleted":"0","num_feature":"31","num_nodes":"3","size_leaf_vector":"1"}},{"base_weights":[-1.0515748E-3,-6.412319E-2,5.34244E-2],"categories":[],"categories_nodes":[],"categories_segments":[],"categories_sizes":[],"default_left":[0,0,0],"id":48,"left_children":[1,-1,-1],"loss_changes":[1.0823042E-1,0E0,0E0],"parents":[2147483647,0,0],"right_children":[2,-1,-1],"split_conditions":[-3.1260207E-2,-6.412319E-2,5.34244E-2],"split_indices":[21,0,0],"split_type":[0,0,0],"sum_hessian":[2.508667E0,1.135124E0,1.3735431E0],"tree_param":{"num_deleted":"0","num_feature":"31","num_nodes":"3","size_leaf_vector":"1"}},{"base_weights":[-1.371687E-3,4.8522383E-2,-6.1354555E-2],"categories":[],"categories_nodes":[],"categories_segments":[],"categories_sizes":[],"default_left":[0,0,0],"id":49,"left_children":[1,-1,-1],"loss_changes":[9.3153045E-2,0E0,0E0],"parents":[2147483647,0,0],"right_children":[2,-1,-1],"split_conditions":[-2.896873E-1,4.8522383E-2,-6.1354555E-2],"split_indices":[18,0,0],"split_type":[0,0,0],"sum_hessian":[2.4790087E0,1.3906468E0,1.088362E0],"tree_param":{"num_deleted":"0","num_feature":"31","num_nodes":"3","size_leaf_vector":"1"}},{"base_weights":[-1.7203728E-3,-5.3514756E-2,6.095517E-2],"categories":[],"categories_nodes":[],"categories_segments":[],"categories_sizes":[],"default_left":[0,0,0],"id":50,"left_children":[1,-1,-1],"loss_changes":[1.0097813E-1,0E0,0E0],"parents":[2147483647,0,0],"right_children":[2,-1,-1],"split_conditions":[1.8856569E-1,-5.3514756E-2,6.095517E-2],"split_indices":[17,0,0],"split_type":[0,0,0],"sum_hessian":[2.4589722E0,1.3349202E0,1.124052E0],"tree_param":{"num_deleted":"0","num_feature":"31","num_nodes":"3","size_leaf_vector":"1"}},{"base_weights":[-5.981015E-4,-5.8569033E-2,5.6558225E-2],"categories":[],"categories_nodes":[],"categories_segments":[],"categories_sizes":[],"default_left":[0,0,0],"id":51,"left_children":[1,-1,-1],"loss_changes":[1.0186856E-1,0E0,0E0],"parents":[2147483647,0,0],"right_children":[2,-1,-1],"split_conditions":[-1.2838659E-1,-5.8569033E-2,5.6558225E-2],"split_indices":[28,0,0],"split_type":[0,0,0],"sum_hessian":[2.4361129E0,1.2008525E0,1.2352604E0],"tree_param":{"num_deleted":"0","num_feature":"31","num_nodes":"3","size_leaf_vector":"1"}},{"base_weights":[-4.5012633E-4,5.9726365E-2,-5.7479363E-2],"categories":[],"categories_nodes":[],"categories_segments":[],"categories_sizes":[],"default_left":[0,0,0],"id":52,"left_children":[1,-1,-1],"loss_changes":[1.0451183E-1,0E0,0E0],"parents":[2147483647,0,0],"right_children":[2,-1,-1],"split_conditions":[-4.1607353E-1,5.9726365E-2,-5.7479363E-2],"split_indices":[15,0,0],"split_type":[0,0,0],"sum_hessian":[2.4092054E0,1.1725122E0,1.2366931E0],"tree_param":{"num_deleted":"0","num_feature":"31","num_nodes":"3","size_leaf_vector":"1"}},{"base_weights":[-5.108016E-5,-5.8059674E-2,4.776264E-2],"categories":[],"categories_nodes":[],"categories_segments":[],"categories_sizes":[],"default_left":[0,0,0],"id":53,"left_children":[1,-1,-1],"loss_changes":[8.390337E-2,0E0,0E0],"parents":[2147483647,0,0],"right_children":[2,-1,-1],"split_conditions":[-1.4557135E-1,-5.8059674E-2,4.776264E-2],"split_indices":[22,0,0],"split_type":[0,0,0],"sum_hessian":[2.390558E0,1.0663958E0,1.3241624E0],"tree_param":{"num_deleted":"0","num_feature":"31","num_nodes":"3","size_leaf_vector":"1"}},{"base_weights":[-6.4754963E-4,-4.749186E-2,6.1400313E-2],"categories":[],"categories_nodes":[],"categories_segments":[],"categories_sizes":[],"default_left":[0,0,0],"id":54,"left_children":[1,-1,-1],"loss_changes":[8.7197825E-2,0E0,0E0],"parents":[2147483647,0,0],"right_children":[2,-1,-1],"split_conditions":[2.5903526E-1,-4.749186E-2,6.1400313E-2],"split_indices":[17,0,0],"split_type":[0,0,0],"sum_hessian":[2.364125E0,1.3617774E0,1.0023477E0],"tree_param":{"num_deleted":"0","num_feature":"31","num_nodes":"3","size_leaf_vector":"1"}},{"base_weights":[-0E0,5.4888718E-2,-5.2200735E-2],"categories":[],"categories_nodes":[],"categories_segments":[],"categories_sizes":[],"default_left":[0,0,0],"id":55,"left_children":[1,-1,-1],"loss_changes":[8.518255E-2,0E0,0E0],"parents":[2147483647,0,0],"right_children":[2,-1,-1],"split_conditions":[-4.1607353E-1,5.4888718E-2,-5.2200735E-2],"split_indices":[15,0,0],"split_type":[0,0,0],"sum_hessian":[2.3444152E0,1.1399784E0,1.2044368E0],"tree_param":{"num_deleted":"0","num_feature":"31","num_nodes":"3","size_leaf_vector":"1"}},{"base_weights":[-0E0,-5.6186285E-2,4.75466E-2],"categories":[],"categories_nodes":[],"categories_segments":[],"categories_sizes":[],"default_left":[0,0,0],"id":56,"left_children":[1,-1,-1],"loss_changes":[7.894771E-2,0E0,0E0],"parents":[2147483647,0,0],"right_children":[2,-1,-1],"split_conditions":[-5.418491E-2,-5.6186285E-2,4.75466E-2],"split_indices":[21,0,0],"split_type":[0,0,0],"sum_hessian":[2.3293283E0,1.05162E0,1.2777084E0],"tree_param":{"num_deleted":"0","num_feature":"31","num_nodes":"3","size_leaf_vector":"1"}},{"base_weights":[-0E0,-5.163729E-2,5.736052E-2],"categories":[],"categories_nodes":[],"categories_segments":[],"categories_sizes":[],"default_left":[0,0,0],"id":57,"left_children":[1,-1,-1],"loss_changes":[8.6823404E-2,0E0,0E0],"parents":[2147483647,0,0],"right_children":[2,-1,-1],"split_conditions":[1.8856569E-1,-5.163729E-2,5.736052E-2],"split_indices":[17,0,0],"split_type":[0,0,0],"sum_hessian":[2.3076289E0,1.2258625E0,1.0817665E0],"tree_param":{"num_deleted":"0","num_feature":"31","num_nodes":"3","size_leaf_vector":"1"}},{"base_weights":[-0E0,-5.209576E-2,4.2458728E-2],"categories":[],"categories_nodes":[],"categories_segments":[],"categories_sizes":[],"default_left":[0,0,0],"id":58,"left_children":[1,-1,-1],"loss_changes":[6.4354435E-2,0E0,0E0],"parents":[2147483647,0,0],"right_children":[2,-1,-1],"split_conditions":[-1.4557135E-1,-5.209576E-2,4.2458728E-2],"split_indices":[22,0,0],"split_type":[0,0,0],"sum_hessian":[2.2877245E0,1.0095435E0,1.2781808E0],"tree_param":{"num_deleted":"0","num_feature":"31","num_nodes":"3","size_leaf_vector":"1"}},{"base_weights":[-1.6782511E-4,4.9720816E-2,-4.788042E-2],"categories":[],"categories_nodes":[],"categories_segments":[],"categories_sizes":[],"default_left":[0,0,0],"id":59,"left_children":[1,-1,-1],"loss_changes":[6.871591E-2,0E0,0E0],"parents":[2147483647,0,0],"right_children":[2,-1,-1],"split_conditions":[-4.1607353E-1,4.9720816E-2,-4.788042E-2],"split_indices":[15,0,0],"split_type":[0,0,0],"sum_hessian":[2.2670183E0,1.1043291E0,1.1626893E0],"tree_param":{"num_deleted":"0","num_feature":"31","num_nodes":"3","size_leaf_vector":"1"}},{"base_weights":[-0E0,-4.782272E-2,5.8024604E-2],"categories":[],"categories_nodes":[],"categories_segments":[],"categories_sizes":[],"default_left":[0,0,0],"id":60,"left_children":[1,-1,-1],"loss_changes":[7.971522E-2,0E0,0E0],"parents":[2147483647,0,0],"right_children":[2,-1,-1],"split_conditions":[2.5116998E-1,-4.782272E-2,5.8024604E-2],"split_indices":[4,0,0],"split_type":[0,0,0],"sum_hessian":[2.2551837E0,1.2544186E0,1.0007652E0],"tree_param":{"num_deleted":"0","num_feature":"31","num_nodes":"3","size_leaf_vector":"1"}},{"base_weights":[4.645762E-5,-5.184983E-2,4.6234004E-2],"categories":[],"categories_nodes":[],"categories_segments":[],"categories_sizes":[],"default_left":[0,0,0],"id":61,"left_children":[1,-1,-1],"loss_changes":[6.838675E-2,0E0,0E0],"parents":[2147483647,0,0],"right_children":[2,-1,-1],"split_conditions":[6.0438596E-2,-5.184983E-2,4.6234004E-2],"split_indices":[21,0,0],"split_type":[0,0,0],"sum_hessian":[2.2372093E0,1.0413251E0,1.1958842E0],"tree_param":{"num_deleted":"0","num_feature":"31","num_nodes":"3","size_leaf_vector":"1"}},{"base_weights":[-0E0,-4.7605827E-2,5.1250663E-2],"categories":[],"categories_nodes":[],"categories_segments":[],"categories_sizes":[],"default_left":[0,0,0],"id":62,"left_children":[1,-1,-1],"loss_changes":[6.911994E-2,0E0,0E0],"parents":[2147483647,0,0],"right_children":[2,-1,-1],"split_conditions":[-1.2954368E-1,-4.7605827E-2,5.1250663E-2],"split_indices":[13,0,0],"split_type":[0,0,0],"sum_hessian":[2.2186196E0,1.1567289E0,1.0618906E0],"tree_param":{"num_deleted":"0","num_feature":"31","num_nodes":"3","size_leaf_vector":"1"}},{"base_weights":[-0E0,-4.8191804E-2,4.7848377E-2],"categories":[],"categories_nodes":[],"categories_segments":[],"categories_sizes":[],"default_left":[0,0,0],"id":63,"left_children":[1,-1,-1],"loss_changes":[6.487499E-2,0E0,0E0],"parents":[2147483647,0,0],"right_children":[2,-1,-1],"split_conditions":[-5.2677948E-2,-4.8191804E-2,4.7848377E-2],"split_indices":[27,0,0],"split_type":[0,0,0],"sum_hessian":[2.2009907E0,1.0943141E0,1.1066766E0],"tree_param":{"num_deleted":"0","num_feature":"31","num_nodes":"3","size_leaf_vector":"1"}},{"base_weights":[-0E0,4.9066104E-2,-4.7118198E-2],"categories":[],"categories_nodes":[],"categories_segments":[],"categories_sizes":[],"default_left":[0,0,0],"id":64,"left_children":[1,-1,-1],"loss_changes":[6.455056E-2,0E0,0E0],"parents":[2147483647,0,0],"right_children":[2,-1,-1],"split_conditions":[-4.1607353E-1,4.9066104E-2,-4.7118198E-2],"split_indices":[15,0,0],"split_type":[0,0,0],"sum_hessian":[2.1816816E0,1.0663439E0,1.1153377E0],"tree_param":{"num_deleted":"0","num_feature":"31","num_nodes":"3","size_leaf_vector":"1"}},{"base_weights":[-0E0,-4.4250354E-2,4.8267107E-2],"categories":[],"categories_nodes":[],"categories_segments":[],"categories_sizes":[],"default_left":[0,0,0],"id":65,"left_children":[1,-1,-1],"loss_changes":[5.9376214E-2,0E0,0E0],"parents":[2147483647,0,0],"right_children":[2,-1,-1],"split_conditions":[1.8856569E-1,-4.4250354E-2,4.8267107E-2],"split_indices":[17,0,0],"split_type":[0,0,0],"sum_hessian":[2.170569E0,1.1378419E0,1.032727E0],"tree_param":{"num_deleted":"0","num_feature":"31","num_nodes":"3","size_leaf_vector":"1"}},{"base_weights":[-0E0,-4.9496423E-2,4.3949146E-2],"categories":[],"categories_nodes":[],"categories_segments":[],"categories_sizes":[],"default_left":[0,0,0],"id":66,"left_children":[1,-1,-1],"loss_changes":[6.010531E-2,0E0,0E0],"parents":[2147483647,0,0],"right_children":[2,-1,-1],"split_conditions":[7.190095E-2,-4.9496423E-2,4.3949146E-2],"split_indices":[21,0,0],"split_type":[0,0,0],"sum_hessian":[2.156436E0,1.0009556E0,1.1554803E0],"tree_param":{"num_deleted":"0","num_feature":"31","num_nodes":"3","size_leaf_vector":"1"}},{"base_weights":[-0E0,-4.4911675E-2,4.3240048E-2],"categories":[],"categories_nodes":[],"categories_segments":[],"categories_sizes":[],"default_left":[0,0,0],"id":67,"left_children":[1,-1,-1],"loss_changes":[5.3327158E-2,0E0,0E0],"parents":[2147483647,0,0],"right_children":[2,-1,-1],"split_conditions":[-1.2838659E-1,-4.4911675E-2,4.3240048E-2],"split_indices":[28,0,0],"split_type":[0,0,0],"sum_hessian":[2.1402316E0,1.0474392E0,1.0927925E0],"tree_param":{"num_deleted":"0","num_feature":"31","num_nodes":"3","size_leaf_vector":"1"}},{"base_weights":[-0E0,-4.4273425E-2,4.687919E-2],"categories":[],"categories_nodes":[],"categories_segments":[],"categories_sizes":[],"default_left":[0,0,0],"id":68,"left_children":[1,-1,-1],"loss_changes":[5.6641906E-2,0E0,0E0],"parents":[2147483647,0,0],"right_children":[2,-1,-1],"split_conditions":[-1.2954368E-1,-4.4273425E-2,4.687919E-2],"split_indices":[13,0,0],"split_type":[0,0,0],"sum_hessian":[2.1252084E0,1.0992016E0,1.0260068E0],"tree_param":{"num_deleted":"0","num_feature":"31","num_nodes":"3","size_leaf_vector":"1"}},{"base_weights":[-0E0,4.2274863E-2,-4.4519927E-2],"categories":[],"categories_nodes":[],"categories_segments":[],"categories_sizes":[],"default_left":[0,0,0],"id":69,"left_children":[1,-1,-1],"loss_changes":[5.106324E-2,0E0,0E0],"parents":[2147483647,0,0],"right_children":[2,-1,-1],"split_conditions":[-4.1546267E-1,4.2274863E-2,-4.4519927E-2],"split_indices":[18,0,0],"split_type":[0,0,0],"sum_hessian":[2.1107445E0,1.0874E0,1.0233446E0],"tree_param":{"num_deleted":"0","num_feature":"31","num_nodes":"3","size_leaf_vector":"1"}},{"base_weights":[-0E0,-4.1838568E-2,4.065112E-2],"categories":[],"categories_nodes":[],"categories_segments":[],"categories_sizes":[],"default_left":[0,0,0],"id":70,"left_children":[1,-1,-1],"loss_changes":[4.5948304E-2,0E0,0E0],"parents":[2147483647,0,0],"right_children":[2,-1,-1],"split_conditions":[6.68455E-2,-4.1838568E-2,4.065112E-2],"split_indices":[17,0,0],"split_type":[0,0,0],"sum_hessian":[2.1002486E0,1.0336999E0,1.0665486E0],"tree_param":{"num_deleted":"0","num_feature":"31","num_nodes":"3","size_leaf_vector":"1"}},{"base_weights":[-0E0,4.512528E-2,-4.301371E-2],"categories":[],"categories_nodes":[],"categories_segments":[],"categories_sizes":[],"default_left":[0,0,0],"id":71,"left_children":[1,-1,-1],"loss_changes":[5.2195504E-2,0E0,0E0],"parents":[2147483647,0,0],"right_children":[2,-1,-1],"split_conditions":[-4.1607353E-1,4.512528E-2,-4.301371E-2],"split_indices":[15,0,0],"split_type":[0,0,0],"sum_hessian":[2.0891938E0,1.014222E0,1.0749717E0],"tree_param":{"num_deleted":"0","num_feature":"31","num_nodes":"3","size_leaf_vector":"1"}},{"base_weights":[-0E0,-4.4041503E-2,4.139361E-2],"categories":[],"categories_nodes":[],"categories_segments":[],"categories_sizes":[],"default_left":[0,0,0],"id":72,"left_children":[1,-1,-1],"loss_changes":[4.8842102E-2,0E0,0E0],"parents":[2147483647,0,0],"right_children":[2,-1,-1],"split_conditions":[-1.2838659E-1,-4.4041503E-2,4.139361E-2],"split_indices":[28,0,0],"split_type":[0,0,0],"sum_hessian":[2.0801551E0,1.0024318E0,1.0777233E0],"tree_param":{"num_deleted":"0","num_feature":"31","num_nodes":"3","size_leaf_vector":"1"}},{"base_weights":[-0E0,-3.9697684E-2,3.7952274E-2],"categories":[],"categories_nodes":[],"categories_segments":[],"categories_sizes":[],"default_left":[0,0,0],"id":73,"left_children":[1,-1,-1],"loss_changes":[4.0139753E-2,0E0,0E0],"parents":[2147483647,0,0],"right_children":[2,-1,-1],"split_conditions":[-5.2677948E-2,-3.9697684E-2,3.7952274E-2],"split_indices":[27,0,0],"split_type":[0,0,0],"sum_hessian":[2.0665448E0,1.0078557E0,1.058689E0],"tree_param":{"num_deleted":"0","num_feature":"31","num_nodes":"3","size_leaf_vector":"1"}},{"base_weights":[-0E0,4.0539324E-2,-3.913842E-2],"categories":[],"categories_nodes":[],"categories_segments":[],"categories_sizes":[],"default_left":[0,0,0],"id":74,"left_children":[1,-1,-1],"loss_changes":[4.204285E-2,0E0,0E0],"parents":[2147483647,0,0],"right_children":[2,-1,-1],"split_conditions":[-4.1607353E-1,4.0539324E-2,-3.913842E-2],"split_indices":[15,0,0],"split_type":[0,0,0],"sum_hessian":[2.0538437E0,1.0037867E0,1.0500569E0],"tree_param":{"num_deleted":"0","num_feature":"31","num_nodes":"3","size_leaf_vector":"1"}},{"base_weights":[-0E0,-3.9406568E-2,3.9304283E-2],"categories":[],"categories_nodes":[],"categories_segments":[],"categories_sizes":[],"default_left":[0,0,0],"id":75,"left_children":[1,-1,-1],"loss_changes":[4.0924124E-2,0E0,0E0],"parents":[2147483647,0,0],"right_children":[2,-1,-1],"split_conditions":[-2.0815101E-1,-3.9406568E-2,3.9304283E-2],"split_indices":[13,0,0],"split_type":[0,0,0],"sum_hessian":[2.0468802E0,1.0225201E0,1.0243602E0],"tree_param":{"num_deleted":"0","num_feature":"31","num_nodes":"3","size_leaf_vector":"1"}},{"base_weights":[-0E0,-3.627964E-2,3.5251968E-2],"categories":[],"categories_nodes":[],"categories_segments":[],"categories_sizes":[],"default_left":[0,0,0],"id":76,"left_children":[1,-1,-1],"loss_changes":[3.363728E-2,0E0,0E0],"parents":[2147483647,0,0],"right_children":[2,-1,-1],"split_conditions":[8.639372E-2,-3.627964E-2,3.5251968E-2],"split_indices":[4,0,0],"split_type":[0,0,0],"sum_hessian":[2.0359468E0,1.0015057E0,1.0344411E0],"tree_param":{"num_deleted":"0","num_feature":"31","num_nodes":"3","size_leaf_vector":"1"}},{"base_weights":[-0E0,3.562435E-2,-3.6363322E-2],"categories":[],"categories_nodes":[],"categories_segments":[],"categories_sizes":[],"default_left":[0,0,0],"id":77,"left_children":[1,-1,-1],"loss_changes":[3.3951335E-2,0E0,0E0],"parents":[2147483647,0,0],"right_children":[2,-1,-1],"split_conditions":[-4.3326107E-1,3.562435E-2,-3.6363322E-2],"split_indices":[18,0,0],"split_type":[0,0,0],"sum_hessian":[2.0276182E0,1.0248308E0,1.0027872E0],"tree_param":{"num_deleted":"0","num_feature":"31","num_nodes":"3","size_leaf_vector":"1"}},{"base_weights":[-0E0,-2.9600335E-2,2.9535322E-2],"categories":[],"categories_nodes":[],"categories_segments":[],"categories_sizes":[],"default_left":[0,0,0],"id":78,"left_children":[1,-1,-1],"loss_changes":[2.2846695E-2,0E0,0E0],"parents":[2147483647,0,0],"right_children":[2,-1,-1],"split_conditions":[-2.0815101E-1,-2.9600335E-2,2.9535322E-2],"split_indices":[13,0,0],"split_type":[0,0,0],"sum_hessian":[2.0208158E0,1.0106261E0,1.0101897E0],"tree_param":{"num_deleted":"0","num_feature":"31","num_nodes":"3","size_leaf_vector":"1"}},{"base_weights":[-0E0,-3.1167706E-2,3.1409193E-2],"categories":[],"categories_nodes":[],"categories_segments":[],"categories_sizes":[],"default_left":[0,0,0],"id":79,"left_children":[1,-1,-1],"loss_changes":[2.55108E-2,0E0,0E0],"parents":[2147483647,0,0],"right_children":[2,-1,-1],"split_conditions":[1.0465052E-1,-3.1167706E-2,3.1409193E-2],"split_indices":[21,0,0],"split_type":[0,0,0],"sum_hessian":[2.0142264E0,1.0126712E0,1.0015552E0],"tree_param":{"num_deleted":"0","num_feature":"31","num_nodes":"3","size_leaf_vector":"1"}},{"base_weights":[-0E0,-3.1311158E-2,3.138216E-2],"categories":[],"categories_nodes":[],"categories_segments":[],"categories_sizes":[],"default_left":[0,0,0],"id":80,"left_children":[1,-1,-1],"loss_changes":[2.5533687E-2,0E0,0E0],"parents":[2147483647,0,0],"right_children":[2,-1,-1],"split_conditions":[1.6614355E-1,-3.1311158E-2,3.138216E-2],"split_indices":[17,0,0],"split_type":[0,0,0],"sum_hessian":[2.007575E0,1.0055976E0,1.0019773E0],"tree_param":{"num_deleted":"0","num_feature":"31","num_nodes":"3","size_leaf_vector":"1"}},{"base_weights":[-0E0,2.8014787E-2,-2.8012717E-2],"categories":[],"categories_nodes":[],"categories_segments":[],"categories_sizes":[],"default_left":[0,0,0],"id":81,"left_children":[1,-1,-1],"loss_changes":[2.0336159E-2,0E0,0E0],"parents":[2147483647,0,0],"right_children":[2,-1,-1],"split_conditions":[-3.9259282E-1,2.8014787E-2,-2.8012717E-2],"split_indices":[15,0,0],"split_type":[0,0,0],"sum_hessian":[2.0010915E0,1.0002265E0,1.000865E0],"tree_param":{"num_deleted":"0","num_feature":"31","num_nodes":"3","size_leaf_vector":"1"}},{"base_weights":[-0E0],"categories":[],"categories_nodes":[],"categories_segments":[],"categories_sizes":[],"default_left":[0],"id":82,"left_children":[-1],"loss_changes":[0E0],"parents":[2147483647],"right_children":[-1],"split_conditions":[-0E0],"split_indices":[0],"split_type":[0],"sum_hessian":[1.9981691E0],"tree_param":{"num_deleted":"0","num_feature":"31","num_nodes":"1","size_leaf_vector":"1"}},{"base_weights":[-0E0],"categories":[],"categories_nodes":[],"categories_segments":[],"categories_sizes":[],"default_left":[0],"id":83,"left_children":[-1],"loss_changes":[0E0],"parents":[2147483647],"right_children":[-1],"split_conditions":[-0E0],"split_indices":[0],"split_type":[0],"sum_hessian":[1.9981691E0],"tree_param":{"num_deleted":"0","num_feature":"31","num_nodes":"1","size_leaf_vector":"1"}},{"base_weights":[-0E0],"categories":[],"categories_nodes":[],"categories_segments":[],"categories_sizes":[],"default_left":[0],"id":84,"left_children":[-1],"loss_changes":[0E0],"parents":[2147483647],"right_children":[-1],"split_conditions":[-0E0],"split_indices":[0],"split_type":[0],"sum_hessian":[1.9981691E0],"tree_param":{"num_deleted":"0","num_feature":"31","num_nodes":"1","size_leaf_vector":"1"}},{"base_weights":[-0E0],"categories":[],"categories_nodes":[],"categories_segments":[],"categories_sizes":[],"default_left":[0],"id":85,"left_children":[-1],"loss_changes":[0E0],"parents":[2147483647],"right_children":[-1],"split_conditions":[-0E0],"split_indices":[0],"split_type":[0],"sum_hessian":[1.9981691E0],"tree_param":{"num_deleted":"0","num_feature":"31","num_nodes":"1","size_leaf_vector":"1"}},{"base_weights":[-0E0],"categories":[],"categories_nodes":[],"categories_segments":[],"categories_sizes":[],"default_left":[0],"id":86,"left_children":[-1],"loss_changes":[0E0],"parents":[2147483647],"right_children":[-1],"split_conditions":[-0E0],"split_indices":[0],"split_type":[0],"sum_hessian":[1.9981691E0],"tree_param":{"num_deleted":"0","num_feature":"31","num_nodes":"1","size_leaf_vector":"1"}},{"base_weights":[-0E0],"categories":[],"categories_nodes":[],"categories_segments":[],"categories_sizes":[],"default_left":[0],"id":87,"left_children":[-1],"loss_changes":[0E0],"parents":[2147483647],"right_children":[-1],"split_conditions":[-0E0],"split_indices":[0],"split_type":[0],"sum_hessian":[1.9981691E0],"tree_param":{"num_deleted":"0","num_feature":"31","num_nodes":"1","size_leaf_vector":"1"}},{"base_weights":[-0E0],"categories":[],"categories_nodes":[],"categories_segments":[],"categories_sizes":[],"default_left":[0],"id":88,"left_children":[-1],"loss_changes":[0E0],"parents":[2147483647],"right_children":[-1],"split_conditions":[-0E0],"split_indices":[0],"split_type":[0],"sum_hessian":[1.9981691E0],"tree_param":{"num_deleted":"0","num_feature":"31","num_nodes":"1","size_leaf_vector":"1"}},{"base_weights":[-0E0],"categories":[],"categories_nodes":[],"categories_segments":[],"categories_sizes":[],"default_left":[0],"id":89,"left_children":[-1],"loss_changes":[0E0],"parents":[2147483647],"right_children":[-1],"split_conditions":[-0E0],"split_indices":[0],"split_type":[0],"sum_hessian":[1.9981691E0],"tree_param":{"num_deleted":"0","num_feature":"31","num_nodes":"1","size_leaf_vector":"1"}},{"base_weights":[-0E0],"categories":[],"categories_nodes":[],"categories_segments":[],"categories_sizes":[],"default_left":[0],"id":90,"left_children":[-1],"loss_changes":[0E0],"parents":[2147483647],"right_children":[-1],"split_conditions":[-0E0],"split_indices":[0],"split_type":[0],"sum_hessian":[1.9981691E0],"tree_param":{"num_deleted":"0","num_feature":"31","num_nodes":"1","size_leaf_vector":"1"}},{"base_weights":[-0E0],"categories":[],"categories_nodes":[],"categories_segments":[],"categories_sizes":[],"default_left":[0],"id":91,"left_children":[-1],"loss_changes":[0E0],"parents":[2147483647],"right_children":[-1],"split_conditions":[-0E0],"split_indices":[0],"split_type":[0],"sum_hessian":[1.9981691E0],"tree_param":{"num_deleted":"0","num_feature":"31","num_nodes":"1","size_leaf_vector":"1"}},{"base_weights":[-0E0],"categories":[],"categories_nodes":[],"categories_segments":[],"categories_sizes":[],"default_left":[0],"id":92,"left_children":[-1],"loss_changes":[0E0],"parents":[2147483647],"right_children":[-1],"split_conditions":[-0E0],"split_indices":[0],"split_type":[0],"sum_hessian":[1.9981691E0],"tree_param":{"num_deleted":"0","num_feature":"31","num_nodes":"1","size_leaf_vector":"1"}},{"base_weights":[-0E0],"categories":[],"categories_nodes":[],"categories_segments":[],"categories_sizes":[],"default_left":[0],"id":93,"left_children":[-1],"loss_changes":[0E0],"parents":[2147483647],"right_children":[-1],"split_conditions":[-0E0],"split_indices":[0],"split_type":[0],"sum_hessian":[1.9981691E0],"tree_param":{"num_deleted":"0","num_feature":"31","num_nodes":"1","size_leaf_vector":"1"}},{"base_weights":[-0E0],"categories":[],"categories_nodes":[],"categories_segments":[],"categories_sizes":[],"default_left":[0],"id":94,"left_children":[-1],"loss_changes":[0E0],"parents":[2147483647],"right_children":[-1],"split_conditions":[-0E0],"split_indices":[0],"split_type":[0],"sum_hessian":[1.9981691E0],"tree_param":{"num_deleted":"0","num_feature":"31","num_nodes":"1","size_leaf_vector":"1"}},{"base_weights":[-0E0],"categories":[],"categories_nodes":[],"categories_segments":[],"categories_sizes":[],"default_left":[0],"id":95,"left_children":[-1],"loss_changes":[0E0],"parents":[2147483647],"right_children":[-1],"split_conditions":[-0E0],"split_indices":[0],"split_type":[0],"sum_hessian":[1.9981691E0],"tree_param":{"num_deleted":"0","num_feature":"31","num_nodes":"1","size_leaf_vector":"1"}},{"base_weights":[-0E0],"categories":[],"categories_nodes":[],"categories_segments":[],"categories_sizes":[],"default_left":[0],"id":96,"left_children":[-1],"loss_changes":[0E0],"parents":[2147483647],"right_children":[-1],"split_conditions":[-0E0],"split_indices":[0],"split_type":[0],"sum_hessian":[1.9981691E0],"tree_param":{"num_deleted":"0","num_feature":"31","num_nodes":"1","size_leaf_vector":"1"}},{"base_weights":[-0E0],"categories":[],"categories_nodes":[],"categories_segments":[],"categories_sizes":[],"default_left":[0],"id":97,"left_children":[-1],"loss_changes":[0E0],"parents":[2147483647],"right_children":[-1],"split_conditions":[-0E0],"split_indices":[0],"split_type":[0],"sum_hessian":[1.9981691E0],"tree_param":{"num_deleted":"0","num_feature":"31","num_nodes":"1","size_leaf_vector":"1"}},{"base_weights":[-0E0],"categories":[],"categories_nodes":[],"categories_segments":[],"categories_sizes":[],"default_left":[0],"id":98,"left_children":[-1],"loss_changes":[0E0],"parents":[2147483647],"right_children":[-1],"split_conditions":[-0E0],"split_indices":[0],"split_type":[0],"sum_hessian":[1.9981691E0],"tree_param":{"num_deleted":"0","num_feature":"31","num_nodes":"1","size_leaf_vector":"1"}},{"base_weights":[-0E0],"categories":[],"categories_nodes":[],"categories_segments":[],"categories_sizes":[],"default_left":[0],"id":99,"left_children":[-1],"loss_changes":[0E0],"parents":[2147483647],"right_children":[-1],"split_conditions":[-0E0],"split_indices":[0],"split_type":[0],"sum_hessian":[1.9981691E0],"tree_param":{"num_deleted":"0","num_feature":"31","num_nodes":"1","size_leaf_vector":"1"}},{"base_weights":[-0E0],"categories":[],"categories_nodes":[],"categories_segments":[],"categories_sizes":[],"default_left":[0],"id":100,"left_children":[-1],"loss_changes":[0E0],"parents":[2147483647],"right_children":[-1],"split_conditions":[-0E0],"split_indices":[0],"split_type":[0],"sum_hessian":[1.9981691E0],"tree_param":{"num_deleted":"0","num_feature":"31","num_nodes":"1","size_leaf_vector":"1"}},{"base_weights":[-0E0],"categories":[],"categories_nodes":[],"categories_segments":[],"categories_sizes":[],"default_left":[0],"id":101,"left_children":[-1],"loss_changes":[0E0],"parents":[2147483647],"right_children":[-1],"split_conditions":[-0E0],"split_indices":[0],"split_type":[0],"sum_hessian":[1.9981691E0],"tree_param":{"num_deleted":"0","num_feature":"31","num_nodes":"1","size_leaf_vector":"1"}},{"base_weights":[-0E0],"categories":[],"categories_nodes":[],"categories_segments":[],"categories_sizes":[],"default_left":[0],"id":102,"left_children":[-1],"loss_changes":[0E0],"parents":[2147483647],"right_children":[-1],"split_conditions":[-0E0],"split_indices":[0],"split_type":[0],"sum_hessian":[1.9981691E0],"tree_param":{"num_deleted":"0","num_feature":"31","num_nodes":"1","size_leaf_vector":"1"}},{"base_weights":[-0E0],"categories":[],"categories_nodes":[],"categories_segments":[],"categories_sizes":[],"default_left":[0],"id":103,"left_children":[-1],"loss_changes":[0E0],"parents":[2147483647],"right_children":[-1],"split_conditions":[-0E0],"split_indices":[0],"split_type":[0],"sum_hessian":[1.9981691E0],"tree_param":{"num_deleted":"0","num_feature":"31","num_nodes":"1","size_leaf_vector":"1"}},{"base_weights":[-0E0],"categories":[],"categories_nodes":[],"categories_segments":[],"categories_sizes":[],"default_left":[0],"id":104,"left_children":[-1],"loss_changes":[0E0],"parents":[2147483647],"right_children":[-1],"split_conditions":[-0E0],"split_indices":[0],"split_type":[0],"sum_hessian":[1.9981691E0],"tree_param":{"num_deleted":"0","num_feature":"31","num_nodes":"1","size_leaf_vector":"1"}},{"base_weights":[-0E0],"categories":[],"categories_nodes":[],"categories_segments":[],"categories_sizes":[],"default_left":[0],"id":105,"left_children":[-1],"loss_changes":[0E0],"parents":[2147483647],"right_children":[-1],"split_conditions":[-0E0],"split_indices":[0],"split_type":[0],"sum_hessian":[1.9981691E0],"tree_param":{"num_deleted":"0","num_feature":"31","num_nodes":"1","size_leaf_vector":"1"}},{"base_weights":[-0E0],"categories":[],"categories_nodes":[],"categories_segments":[],"categories_sizes":[],"default_left":[0],"id":106,"left_children":[-1],"loss_changes":[0E0],"parents":[2147483647],"right_children":[-1],"split_conditions":[-0E0],"split_indices":[0],"split_type":[0],"sum_hessian":[1.9981691E0],"tree_param":{"num_deleted":"0","num_feature":"31","num_nodes":"1","size_leaf_vector":"1"}},{"base_weights":[-0E0],"categories":[],"categories_nodes":[],"categories_segments":[],"categories_sizes":[],"default_left":[0],"id":107,"left_children":[-1],"loss_changes":[0E0],"parents":[2147483647],"right_children":[-1],"split_conditions":[-0E0],"split_indices":[0],"split_type":[0],"sum_hessian":[1.9981691E0],"tree_param":{"num_deleted":"0","num_feature":"31","num_nodes":"1","size_leaf_vector":"1"}},{"base_weights":[-0E0],"categories":[],"categories_nodes":[],"categories_segments":[],"categories_sizes":[],"default_left":[0],"id":108,"left_children":[-1],"loss_changes":[0E0],"parents":[2147483647],"right_children":[-1],"split_conditions":[-0E0],"split_indices":[0],"split_type":[0],"sum_hessian":[1.9981691E0],"tree_param":{"num_deleted":"0","num_feature":"31","num_nodes":"1","size_leaf_vector":"1"}},{"base_weights":[-0E0],"categories":[],"categories_nodes":[],"categories_segments":[],"categories_sizes":[],"default_left":[0],"id":109,"left_children":[-1],"loss_changes":[0E0],"parents":[2147483647],"right_children":[-1],"split_conditions":[-0E0],"split_indices":[0],"split_type":[0],"sum_hessian":[1.9981691E0],"tree_param":{"num_deleted":"0","num_feature":"31","num_nodes":"1","size_leaf_vector":"1"}},{"base_weights":[-0E0],"categories":[],"categories_nodes":[],"categories_segments":[],"categories_sizes":[],"default_left":[0],"id":110,"left_children":[-1],"loss_changes":[0E0],"parents":[2147483647],"right_children":[-1],"split_conditions":[-0E0],"split_indices":[0],"split_type":[0],"sum_hessian":[1.9981691E0],"tree_param":{"num_deleted":"0","num_feature":"31","num_nodes":"1","size_leaf_vector":"1"}},{"base_weights":[-0E0],"categories":[],"categories_nodes":[],"categories_segments":[],"categories_sizes":[],"default_left":[0],"id":111,"left_children":[-1],"loss_changes":[0E0],"parents":[2147483647],"right_children":[-1],"split_conditions":[-0E0],"split_indices":[0],"split_type":[0],"sum_hessian":[1.9981691E0],"tree_param":{"num_deleted":"0","num_feature":"31","num_nodes":"1","size_leaf_vector":"1"}},{"base_weights":[-0E0],"categories":[],"categories_nodes":[],"categories_segments":[],"categories_sizes":[],"default_left":[0],"id":112,"left_children":[-1],"loss_changes":[0E0],"parents":[2147483647],"right_children":[-1],"split_conditions":[-0E0],"split_indices":[0],"split_type":[0],"sum_hessian":[1.9981691E0],"tree_param":{"num_deleted":"0","num_feature":"31","num_nodes":"1","size_leaf_vector":"1"}},{"base_weights":[-0E0],"categories":[],"categories_nodes":[],"categories_segments":[],"categories_sizes":[],"default_left":[0],"id":113,"left_children":[-1],"loss_changes":[0E0],"parents":[2147483647],"right_children":[-1],"split_conditions":[-0E0],"split_indices":[0],"split_type":[0],"sum_hessian":[1.9981691E0],"tree_param":{"num_deleted":"0","num_feature":"31","num_nodes":"1","size_leaf_vector":"1"}}]},"name":"gbtree"},"learner_model_param":{"base_score":"[5E-1]","boost_from_average":"1","num_class":"0","num_feature":"31","num_target":"1"},"objective":{"name":"binary:logistic","reg_loss_param":{"scale_pos_weight":"1.6891892"}}},"version":[3,1,3]}