{"learner":{"attributes":{"best_iteration":"21","best_score":"0.9905660377358491"},"feature_names":[],"feature_types":[],"gradient_booster":{"model":{"cats":{"enc":[],"feature_segments":[],"sorted_idx":[]},"gbtree_model_param":{"num_parallel_tree":"1","num_trees":"72"},"iteration_indptr":[0,1,2,3,4,5,6,7,8,9,10,11,12,13,14,15,16,17,18,19,20,21,22,23,24,25,26,27,28,29,30,31,32,33,34,35,36,37,38,39,40,41,42,43,44,45,46,47,48,49,50,51,52,53,54,55,56,57,58,59,60,61,62,63,64,65,66,67,68,69,70,71,72],"tree_info":[0,0,0,0,0,0,0,0,0,0,0,0,0,0,0,0,0,0,0,0,0,0,0,0,0,0,0,0,0,0,0,0,0,0,0,0,0,0,0,0,0,0,0,0,0,0,0,0,0,0,0,0,0,0,0,0,0,0,0,0,0,0,0,0,0,0,0,0,0,0,0,0],"trees":[{"base_weights":[8.382451E-10,-1.5299124E0,1.8413435E0,-1.7136759E0,5.999998E-1,-5.054936E-2,1.908895E0,-1.85772E0,-1.6849807E-1,3.5593126E-2,1.9624674E0,-6E-1,-1.1848711E0,-1.0601499E0,4.4529584E-1,1.5376863E-1,2E0,-1.6285287E0,5.9999937E-1,1.5376863E-1,-5.9999967E-1,5.999998E-1,6E-1,-5.999999E-1,-1.6772322E-1],"categories":[],"categories_nodes":[],"categories_segments":[],"categories_sizes":[],"default_left":[0,0,0,0,0,0,0,0,0,0,0,0,0,0,0,0,0,0,0,0,0,0,0,0,0],"id":0,"left_children":[1,3,5,7,-1,-1,9,11,13,-1,15,-1,17,19,-1,-1,21,23,-1,-1,-1,-1,-1,-1,-1],"loss_changes":[3.5213678E2,4.4286987E1,7.701599E0,1.4444E1,0E0,0E0,5.263611E0,5.682846E0,8.15535E0,0E0,2.8998108E0,0E0,1.46406975E1,5.3132153E0,0E0,0E0,1.5258789E-5,3.6130104E0,0E0,0E0,0E0,0E0,0E0,0E0,0E0],"parents":[2147483647,0,0,1,1,2,2,3,3,6,6,7,7,8,8,10,10,12,12,13,13,16,16,17,17],"right_children":[2,4,6,8,-1,-1,10,12,14,-1,16,-1,18,20,-1,-1,22,24,-1,-1,-1,-1,-1,-1,-1],"split_conditions":[1.6926223E-1,9.306002E-1,-1.044297E0,-1.0472032E-1,5.999998E-1,-5.054936E-2,-1.3055918E-1,6.499309E-1,1.012682E0,3.5593126E-2,-4.04614E-1,-6E-1,-7.3964685E-2,3.0683907E-2,4.4529584E-1,1.5376863E-1,1.1370189E-1,-3.1297594E-1,5.9999937E-1,1.5376863E-1,-5.9999967E-1,5.999998E-1,6E-1,-5.999999E-1,-1.6772322E-1],"split_indices":[22,27,1,13,0,0,23,21,1,0,26,0,7,18,0,0,0,26,0,0,0,0,0,0,0],"split_type":[0,0,0,0,0,0,0,0,0,0,0,0,0,0,0,0,0,0,0,0,0,0,0,0,0],"sum_hessian":[1.25E2,6.827365E1,5.6726353E1,6.489527E1,3.3783784E0,1.8445946E0,5.4881756E1,5.936149E1,5.533784E0,1.5945946E0,5.3287163E1,4.9E1,1.0361486E1,3.5945945E0,1.9391892E0,1.3445946E0,5.1942566E1,9.094595E0,1.266892E0,1.3445946E0,2.25E0,3.8006756E0,4.814189E1,6.75E0,2.3445945E0],"tree_param":{"num_deleted":"0","num_feature":"31","num_nodes":"25","size_leaf_vector":"1"}},{"base_weights":[-9.258192E-5,-1.178078E0,1.4150554E0,-1.3191811E0,4.646433E-1,6.3397866E-1,1.5665239E0,-1.4336188E0,-1.2922788E-1,-5.903445E-1,1.0824946E0,5.681584E-1,1.5570647E0,-1.5488117E0,-8.9915586E-1,-6.581581E-1,4.9218988E-1,1.6039014E0,1.1785957E-1,5.5030197E-1,4.646435E-1,-4.646434E-1,-4.6464348E-1,-1.2328424E0,4.6464306E-1,-5.521025E-1,3.7175098E-1,5.280538E-1,4.6464333E-1,-3.2442218E-1,4.6464297E-1,-4.7568214E-1,-1.1542923E-1,3.3841822E-1,-1.1120189E-1],"categories":[],"categories_nodes":[],"categories_segments":[],"categories_sizes":[],"default_left":[0,0,0,0,0,0,0,0,0,0,0,0,0,0,0,0,0,0,0,0,0,0,0,0,0,0,0,0,0,0,0,0,0,0,0],"id":1,"left_children":[1,3,5,7,-1,9,11,13,15,-1,17,-1,19,21,23,25,-1,27,29,-1,-1,-1,-1,31,-1,-1,33,-1,-1,-1,-1,-1,-1,-1,-1],"loss_changes":[1.9195573E2,2.4179092E1,6.188568E0,8.136269E0,0E0,9.914658E0,1.3565826E-1,3.355751E0,4.9071035E0,0E0,3.6449823E0,0E0,9.7435E-2,1.5258789E-5,7.894677E0,4.9137287E0,0E0,4.0495872E-2,4.363573E0,0E0,0E0,0E0,0E0,2.5445642E0,0E0,0E0,1.2110469E0,0E0,0E0,0E0,0E0,0E0,0E0,0E0,0E0],"parents":[2147483647,0,0,1,1,2,2,3,3,5,5,6,6,7,7,8,8,10,10,12,12,13,13,14,14,15,15,17,17,18,18,23,23,26,26],"right_children":[2,4,6,8,-1,10,12,14,16,-1,18,-1,20,22,24,26,-1,28,30,-1,-1,-1,-1,32,-1,-1,34,-1,-1,-1,-1,-1,-1,-1,-1],"split_conditions":[1.6926223E-1,9.306002E-1,3.76471E-1,-1.0472032E-1,4.646433E-1,-8.8909703E-1,-1.0049179E0,6.499309E-1,1.5597051E-1,-5.903445E-1,-2.7349055E-1,5.681584E-1,1.9273391E-2,-1.241712E0,-7.3964685E-2,2.4213162E-1,4.9218988E-1,-6.714368E-1,8.15361E-1,5.5030197E-1,4.646435E-1,-4.646434E-1,-4.6464348E-1,-3.9340195E-1,4.6464306E-1,-5.521025E-1,6.694942E-1,5.280538E-1,4.6464333E-1,-3.2442218E-1,4.6464297E-1,-4.7568214E-1,-1.1542923E-1,3.3841822E-1,-1.1120189E-1],"split_indices":[22,27,27,13,0,1,1,21,0,0,17,0,20,0,7,4,0,5,0,0,0,0,0,20,0,0,8,0,0,0,0,0,0,0,0],"split_type":[0,0,0,0,0,0,0,0,0,0,0,0,0,0,0,0,0,0,0,0,0,0,0,0,0,0,0,0,0,0,0,0,0,0,0],"sum_hessian":[1.15148766E2,6.2840015E1,5.230875E1,5.9748337E1,3.091679E0,8.49624E0,4.381251E1,5.450645E1,5.241885E0,1.2492822E0,7.246958E0,1.2305151E0,4.2581993E1,4.4841713E1,9.664737E0,4.0357776E0,1.2061081E0,4.704221E0,2.5427372E0,1.230787E0,4.1351208E1,4.346901E0,4.0494812E1,8.505358E0,1.1593797E0,1.8789827E0,2.1567948E0,1.2260816E0,3.478139E0,1.3833575E0,1.1593797E0,6.006788E0,2.4985695E0,1.0684059E0,1.0883888E0],"tree_param":{"num_deleted":"0","num_feature":"31","num_nodes":"35","size_leaf_vector":"1"}},{"base_weights":[4.1421942E-4,-1.088382E0,1.1361296E0,-1.258805E0,6.23079E-1,-4.0962556E-1,1.2311804E0,-1.0121838E0,-1.3809806E0,-1.717628E-1,1.4010515E0,-1.4576606E-1,1.2985698E0,-1.267261E0,6.156428E-1,-1.3595726E0,-1.49944E0,4.4103286E-1,4.063948E-1,-1.7905211E-1,1.0339798E-1,4.0425485E-1,1.3469912E0,-1.3531668E0,-9.858478E-2,-1.3511782E0,-4.4443884E-1,-1.4277074E0,-5.1118714E-1,-2.0811836E-1,4.569752E-1,1.3597682E0,2.704674E-1,-4.033255E-1,-4.3548486E-1,-4.037171E-1,-4.3543854E-1,-4.118299E-1,-4.6405947E-1,4.339329E-1,4.049391E-1],"categories":[],"categories_nodes":[],"categories_segments":[],"categories_sizes":[],"default_left":[0,0,0,0,0,0,0,0,0,0,0,0,0,0,0,0,0,0,0,0,0,0,0,0,0,0,0,0,0,0,0,0,0,0,0,0,0,0,0,0,0],"id":2,"left_children":[1,3,5,7,9,-1,11,13,15,-1,17,19,21,23,-1,25,27,-1,-1,-1,-1,29,31,33,-1,35,-1,37,-1,-1,-1,39,-1,-1,-1,-1,-1,-1,-1,-1,-1],"loss_changes":[1.2030516E2,1.4487663E1,1.1322575E1,1.3611069E0,4.184048E0,0E0,4.2568817E0,1.1697181E1,7.6602936E-2,0E0,8.728981E-3,4.7350985E-1,1.8939209E0,1.1139679E0,0E0,2.6172638E-2,6.782532E-2,0E0,0E0,0E0,0E0,2.759969E0,2.361145E-1,1.089859E-2,0E0,1.3088226E-2,0E0,2.2406101E-2,0E0,0E0,0E0,3.4858704E-2,0E0,0E0,0E0,0E0,0E0,0E0,0E0,0E0,0E0],"parents":[2147483647,0,0,1,1,2,2,3,3,4,4,6,6,7,7,8,8,10,10,11,11,12,12,13,13,15,15,16,16,21,21,22,22,23,23,25,25,27,27,31,31],"right_children":[2,4,6,8,10,-1,12,14,16,-1,18,20,22,24,-1,26,28,-1,-1,-1,-1,30,32,34,-1,36,-1,38,-1,-1,-1,40,-1,-1,-1,-1,-1,-1,-1,-1,-1],"split_conditions":[5.614986E-2,1.2307429E-1,-2.327333E-1,-7.3306304E-1,9.673081E-3,-4.0962556E-1,-2.9140463E-1,-3.9796668E-1,8.8245285E-1,-1.717628E-1,-6.78921E-1,-1.9185527E-1,-9.3774176E-1,4.8607577E-2,6.156428E-1,2.4913053E-1,-1.8499638E-1,4.4103286E-1,4.063948E-1,-1.7905211E-1,1.0339798E-1,7.130365E-1,2.3247056E0,-8.3895445E-2,-9.858478E-2,1.1019884E-2,-4.4443884E-1,-1.7979804E-1,-5.1118714E-1,-2.0811836E-1,4.569752E-1,-1.0017916E-1,2.704674E-1,-4.033255E-1,-4.3548486E-1,-4.037171E-1,-4.3543854E-1,-4.118299E-1,-4.6405947E-1,4.339329E-1,4.049391E-1],"split_indices":[7,3,26,15,1,0,22,26,21,0,6,1,1,10,0,12,0,0,0,0,0,6,16,20,0,20,0,17,0,0,0,23,0,0,0,0,0,0,0,0,0],"split_type":[0,0,0,0,0,0,0,0,0,0,0,0,0,0,0,0,0,0,0,0,0,0,0,0,0,0,0,0,0,0,0,0,0,0,0,0,0,0,0,0,0],"sum_hessian":[9.7289986E1,4.967101E1,4.761898E1,4.517281E1,4.498197E0,1.7431356E0,4.5875843E1,1.4964917E1,3.0207893E1,1.7731475E0,2.7250495E0,2.140459E0,4.3735386E1,1.381495E1,1.1499677E0,2.5584316E1,4.6235766E0,1.0951527E0,1.6298968E0,1.114962E0,1.0254972E0,2.2463624E0,4.148902E1,1.2656603E1,1.1583475E0,2.3935894E1,1.6484228E0,3.4229996E0,1.200577E0,1.133827E0,1.1125355E0,4.0332115E1,1.1569049E0,1.1623698E1,1.032904E0,2.2701162E1,1.2347317E0,2.3427992E0,1.0802002E0,4.1611423E0,3.6170975E1],"tree_param":{"num_deleted":"0","num_feature":"31","num_nodes":"41","size_leaf_vector":"1"}},{"base_weights":[6.238327E-4,-9.031984E-1,1.0968493E0,-1.0245205E0,1.1442863E0,2.3532343E-1,1.2081822E0,-1.0800425E0,1.07609004E-1,4.0491408E-1,2.8140646E-1,9.0407616E-1,-4.6652257E-1,9.9523745E-2,1.2417688E0,-1.1285877E0,1.7872004E-1,3.8461837E-1,5.5778865E-2,4.1375944E-1,1.2370754E0,-1.2067726E0,-6.3103586E-1,3.9810023E-1,1.2333748E0,-3.7273616E-1,-2.3042065E-1,-3.8923296E-1,8.740494E-2,3.9008817E-1,3.6915934E-1],"categories":[],"categories_nodes":[],"categories_segments":[],"categories_sizes":[],"default_left":[0,0,0,0,0,0,0,0,0,0,0,0,0,0,0,0,0,0,0,0,0,0,0,0,0,0,0,0,0,0,0],"id":3,"left_children":[1,3,5,7,9,11,13,15,-1,-1,-1,17,-1,-1,19,21,-1,-1,-1,-1,23,25,27,-1,29,-1,-1,-1,-1,-1,-1],"loss_changes":[7.8639206E1,1.0806286E1,3.440258E0,3.1540718E0,1.03111744E-1,4.9146E0,9.349823E-1,3.2120743E0,0E0,0E0,0E0,8.111937E-1,0E0,0E0,1.9729614E-2,1.492733E0,0E0,0E0,0E0,0E0,9.838104E-3,5.1909256E-1,3.2031207E0,0E0,5.405426E-3,0E0,0E0,0E0,0E0,0E0,0E0],"parents":[2147483647,0,0,1,1,2,2,3,3,4,4,5,5,6,6,7,7,11,11,14,14,15,15,20,20,21,21,22,22,24,24],"right_children":[2,4,6,8,10,12,14,16,-1,-1,-1,18,-1,-1,20,22,-1,-1,-1,-1,24,26,28,-1,30,-1,-1,-1,-1,-1,-1],"split_conditions":[1.6926223E-1,1.0945057E0,2.4830703E-2,1.1248414E-1,9.844213E-1,-4.8819283E-1,2.1381415E-1,1.8655534E0,1.07609004E-1,4.0491408E-1,2.8140646E-1,-3.8511923E-1,-4.6652257E-1,9.9523745E-2,-1.0049179E0,-1.4557135E-1,1.7872004E-1,3.8461837E-1,5.5778865E-2,4.1375944E-1,1.06935345E-1,1.2197734E0,-3.3896115E-1,3.9810023E-1,1.162521E-1,-3.7273616E-1,-2.3042065E-1,-3.8923296E-1,8.740494E-2,3.9008817E-1,3.6915934E-1],"split_indices":[22,28,7,13,6,15,22,24,0,0,0,7,0,0,1,22,0,0,0,0,27,21,28,0,20,0,0,0,0,0,0],"split_type":[0,0,0,0,0,0,0,0,0,0,0,0,0,0,0,0,0,0,0,0,0,0,0,0,0,0,0,0,0,0,0],"sum_hessian":[7.9369965E1,4.350265E1,3.5867317E1,4.1069134E1,2.433518E0,4.1046166E0,3.17627E1,3.9484245E1,1.5848868E0,1.2192297E0,1.2142884E0,2.9883893E0,1.1162275E0,1.1722819E0,3.0590418E1,3.837264E1,1.1116077E0,1.9578857E0,1.0305035E0,1.010189E0,2.9580229E1,3.316164E1,5.2109976E0,1.169158E0,2.841107E1,3.066736E1,2.4942806E0,3.0252836E0,2.185714E0,1.1580768E0,2.7252993E1],"tree_param":{"num_deleted":"0","num_feature":"31","num_nodes":"31","size_leaf_vector":"1"}},{"base_weights":[-1.5465659E-4,-7.9749656E-1,1.0394801E0,-9.553187E-1,9.378695E-1,-7.667407E-2,1.1263249E0,-1.099783E0,-5.405319E-1,1.3397406E-1,3.5698116E-1,1.9224877E-2,1.1690562E0,-1.166678E0,-4.7033456E-1,-8.0176735E-1,3.7736812E-1,1.2482553E0,1.1612091E0,-1.1607525E0,-3.703731E-1,1.759114E-1,-4.073054E-1,-1.4903732E-1,-1.2225891E0,3.9396065E-1,3.5224557E-1,3.5487646E-1,1.1601347E0,-3.4773704E-1,-3.5344064E-1,-3.5458225E-1,3.6046332E-1,-3.577155E-1,-3.8906327E-1,3.5278773E-1,3.4779906E-1],"categories":[],"categories_nodes":[],"categories_segments":[],"categories_sizes":[],"default_left":[0,0,0,0,0,0,0,0,0,0,0,0,0,0,0,0,0,0,0,0,0,0,0,0,0,0,0,0,0,0,0,0,0,0,0,0,0],"id":4,"left_children":[1,3,5,7,9,-1,11,13,15,-1,-1,-1,17,19,21,23,-1,25,27,29,-1,-1,-1,31,33,-1,-1,-1,35,-1,-1,-1,-1,-1,-1,-1,-1],"loss_changes":[5.2978725E1,9.9063225E0,3.1199684E0,1.9867153E0,3.7340546E-1,0E0,1.1800461E0,1.0354347E0,4.023732E0,0E0,0E0,0E0,1.5529633E-2,8.939743E-3,2.2150755E0,2.054153E0,0E0,1.0840416E-2,5.302429E-4,5.7792664E-4,0E0,0E0,0E0,4.0893793E0,1.0200024E-2,0E0,0E0,0E0,2.7275085E-4,0E0,0E0,0E0,0E0,0E0,0E0,0E0,0E0],"parents":[2147483647,0,0,1,1,2,2,3,3,4,4,6,6,7,7,8,8,12,12,13,13,14,14,15,15,17,17,18,18,19,19,23,23,24,24,28,28],"right_children":[2,4,6,8,10,-1,12,14,16,-1,-1,-1,18,20,22,24,-1,26,28,30,-1,-1,-1,32,34,-1,-1,-1,36,-1,-1,-1,-1,-1,-1,-1,-1],"split_conditions":[1.07998595E-1,6.92686E-1,-3.547591E-1,4.266283E-1,-1.710075E-1,-7.667407E-2,-1.032715E0,-1.1874092E-1,-7.3964685E-2,1.3397406E-1,3.5698116E-1,1.9224877E-2,1.06935345E-1,3.1623957E-1,3.0683907E-2,-7.3306304E-1,3.7736812E-1,5.645672E-1,-7.222762E-1,-9.61532E-3,-3.703731E-1,1.759114E-1,-4.073054E-1,-3.975287E-1,-3.8970253E-1,3.9396065E-1,3.5224557E-1,3.5487646E-1,2.2569467E-1,-3.4773704E-1,-3.5344064E-1,-3.5458225E-1,3.6046332E-1,-3.577155E-1,-3.8906327E-1,3.5278773E-1,3.4779906E-1],"split_indices":[20,27,26,1,1,0,1,13,7,0,0,0,27,27,18,15,0,0,21,10,0,0,0,20,7,0,0,0,22,0,0,0,0,0,0,0,0],"split_type":[0,0,0,0,0,0,0,0,0,0,0,0,0,0,0,0,0,0,0,0,0,0,0,0,0,0,0,0,0,0,0,0,0,0,0,0,0],"sum_hessian":[6.391107E1,3.6170395E1,2.7740675E1,3.3155117E1,3.015278E0,1.74334E0,2.5997335E1,2.4590572E1,8.564546E0,1.0224634E0,1.9928147E0,1.0053654E0,2.499197E1,2.222825E1,2.3623214E0,7.478269E0,1.0862764E0,2.2529752E0,2.2738995E1,2.0444149E1,1.7841017E0,1.0782642E0,1.2840571E0,2.9314091E0,4.54686E0,1.2006538E0,1.0523214E0,1.0721368E0,2.1666859E1,1.8692425E1,1.7517254E0,1.6610584E0,1.2703507E0,3.2325816E0,1.3142784E0,1.0480977E0,2.0618761E1],"tree_param":{"num_deleted":"0","num_feature":"31","num_nodes":"37","size_leaf_vector":"1"}},{"base_weights":[-1.144888E-3,-8.261189E-1,8.8554066E-1,-9.8916537E-1,3.81901E-1,1.5033689E-1,1.1199446E0,-7.1837837E-1,-1.1326957E0,-1.5576874E-1,3.5574657E-1,-7.7474654E-1,1.0539935E0,3.577327E-1,1.1155488E0,-9.9196273E-1,3.132692E-1,-1.124426E0,-3.6516845E-1,-3.644261E-1,-2.4386955E-2,2.5268057E-1,3.4929997E-1,3.4055907E-1,1.1132131E0,-1.1350222E0,-5.4341238E-2,-1.1184464E0,-3.4903932E-1,3.3364695E-1,1.120089E0,-3.3380994E-1,-3.711316E-1,-3.3386952E-1,-3.5209668E-1,3.3898205E-1,3.3320558E-1],"categories":[],"categories_nodes":[],"categories_segments":[],"categories_sizes":[],"default_left":[0,0,0,0,0,0,0,0,0,0,0,0,0,0,0,0,0,0,0,0,0,0,0,0,0,0,0,0,0,0,0,0,0,0,0,0,0],"id":5,"left_children":[1,3,5,7,9,11,13,15,17,-1,-1,19,21,-1,23,25,-1,27,-1,-1,-1,-1,-1,-1,29,31,-1,33,-1,-1,35,-1,-1,-1,-1,-1,-1],"loss_changes":[3.693465E1,5.1518345E0,4.1939144E0,8.9569855E-1,2.2533581E0,4.9181337E0,5.8784485E-3,3.8499064E0,1.0528564E-2,0E0,0E0,8.8704574E-1,6.952429E-2,0E0,7.953644E-4,8.0164766E-1,0E0,3.1986237E-3,0E0,0E0,0E0,0E0,0E0,0E0,1.1062622E-4,1.3383865E-2,0E0,3.643036E-3,0E0,0E0,1.8978119E-4,0E0,0E0,0E0,0E0,0E0,0E0],"parents":[2147483647,0,0,1,1,2,2,3,3,4,4,5,5,6,6,7,7,8,8,11,11,12,12,14,14,15,15,17,17,24,24,25,25,27,27,30,30],"right_children":[2,4,6,8,10,12,14,16,18,-1,-1,20,22,-1,24,26,-1,28,-1,-1,-1,-1,-1,-1,30,32,-1,34,-1,-1,36,-1,-1,-1,-1,-1,-1],"split_conditions":[5.614986E-2,1.2307429E-1,2.1381415E-1,-7.3306304E-1,9.673081E-3,-1.6717093E-1,-1.0383096E0,-6.4589125E-1,-3.5676613E-2,-1.5576874E-1,3.5574657E-1,5.82205E-1,7.3018306E-1,3.577327E-1,4.5928922E-1,-2.067908E-3,3.132692E-1,9.414021E-1,-3.6516845E-1,-3.644261E-1,-2.4386955E-2,2.5268057E-1,3.4929997E-1,3.4055907E-1,1.421571E0,-7.303327E-1,-5.4341238E-2,1.3952279E0,-3.4903932E-1,3.3364695E-1,1.0126356E0,-3.3380994E-1,-3.711316E-1,-3.3386952E-1,-3.5209668E-1,3.3898205E-1,3.3320558E-1],"split_indices":[7,3,22,15,1,21,21,25,22,0,0,24,9,0,27,10,0,21,0,0,0,0,0,0,15,26,0,18,0,0,29,0,0,0,0,0,0],"split_type":[0,0,0,0,0,0,0,0,0,0,0,0,0,0,0,0,0,0,0,0,0,0,0,0,0,0,0,0,0,0,0,0,0,0,0,0,0],"sum_hessian":[5.0492172E1,2.61563E1,2.4335873E1,2.3045807E1,3.110492E0,5.8832297E0,1.8452644E1,7.983672E0,1.5062135E1,1.4665775E0,1.6439146E0,2.9071486E0,2.9760811E0,1.0548441E0,1.7397799E1,6.9109807E0,1.0726912E0,1.3719947E1,1.3421884E0,1.7786019E0,1.1285467E0,1.0196135E0,1.9564676E0,1.8484398E0,1.5549359E1,5.874501E0,1.0364796E0,1.1897594E1,1.8223526E0,1.3478401E1,2.0709584E0,4.820437E0,1.0540644E0,1.0811206E1,1.0863879E0,1.011342E0,1.0596162E0],"tree_param":{"num_deleted":"0","num_feature":"31","num_nodes":"37","size_leaf_vector":"1"}},{"base_weights":[-1.1170951E-3,-7.609012E-1,8.487906E-1,-9.2906046E-1,4.0177035E-1,1.5923607E-1,1.0858741E0,1.2064971E-1,-1.0235628E0,-6.503294E-2,3.1108078E-1,-6.3897663E-1,9.622693E-1,3.369835E-1,1.0828353E0,-1.0883775E0,-1.297803E-1,-3.4551042E-1,1.5793512E-2,2.2552933E-1,3.355715E-1,3.2901835E-1,1.0811265E0,-2.6848644E-1,-1.1037562E0,3.2411018E-1,3.257674E-1,-3.264611E-1,-3.8301057E-1],"categories":[],"categories_nodes":[],"categories_segments":[],"categories_sizes":[],"default_left":[0,0,0,0,0,0,0,0,0,0,0,0,0,0,0,0,0,0,0,0,0,0,0,0,0,0,0,0,0],"id":6,"left_children":[1,3,5,7,9,11,13,-1,15,-1,-1,17,19,-1,21,23,-1,-1,-1,-1,-1,-1,25,-1,27,-1,-1,-1,-1],"loss_changes":[2.5583939E1,4.0898952E0,3.0571918E0,2.2991276E0,1.0384657E0,3.0668786E0,1.5792847E-3,0E0,6.536083E-1,0E0,0E0,8.508892E-1,7.847381E-2,0E0,3.0326843E-4,4.573822E-2,0E0,0E0,0E0,0E0,0E0,0E0,3.9100647E-5,0E0,3.8312912E-2,0E0,0E0,0E0,0E0],"parents":[2147483647,0,0,1,1,2,2,3,3,4,4,5,5,6,6,8,8,11,11,12,12,14,14,15,15,22,22,24,24],"right_children":[2,4,6,8,10,12,14,-1,16,-1,-1,18,20,-1,22,24,-1,-1,-1,-1,-1,-1,26,-1,28,-1,-1,-1,-1],"split_conditions":[8.5432E-2,-4.1512668E-2,2.1381415E-1,-1.2533942E0,-8.183307E-1,-1.6717093E-1,-7.222762E-1,1.2064971E-1,1.1346246E0,-6.503294E-2,3.1108078E-1,5.82205E-1,-3.964777E-1,3.369835E-1,4.5928922E-1,-9.2449695E-1,-1.297803E-1,-3.4551042E-1,1.5793512E-2,2.2552933E-1,3.355715E-1,3.2901835E-1,1.421571E0,-2.6848644E-1,3.371703E-2,3.2411018E-1,3.257674E-1,-3.264611E-1,-3.8301057E-1],"split_indices":[7,13,22,14,29,21,21,0,21,0,0,24,18,0,27,18,0,0,0,0,0,0,15,0,20,0,0,0,0],"split_type":[0,0,0,0,0,0,0,0,0,0,0,0,0,0,0,0,0,0,0,0,0,0,0,0,0,0,0,0,0],"sum_hessian":[3.9619175E1,2.0918688E1,1.8700487E1,1.8275475E1,2.6432133E0,4.7845845E0,1.3915901E1,1.211362E0,1.7064112E1,1.3391255E0,1.3040878E0,2.3994942E0,2.3850906E0,1.0455762E0,1.2870325E1,1.5377552E1,1.6865608E0,1.3779608E0,1.0215335E0,1.0163286E0,1.368762E0,1.4096285E0,1.1460697E1,1.1326008E0,1.4244951E1,9.885976E0,1.5747207E0,1.3069641E1,1.1753101E0],"tree_param":{"num_deleted":"0","num_feature":"31","num_nodes":"29","size_leaf_vector":"1"}},{"base_weights":[-1.162697E-3,-6.576953E-1,8.705198E-1,-7.588224E-1,2.4938914E-1,-1.17733054E-1,9.759445E-1,-8.446361E-1,1.5076187E-1,1.434609E-1,1.0625942E0,-1.0731243E0,-4.316152E-1,3.243411E-1,1.0605423E0,-1.0666224E0,-3.3685753E-1,-8.205948E-1,1.38347E-1,3.217753E-1,1.058648E0,-3.1871274E-1,-3.273319E-1,-3.2829782E-1,-1.6590962E-2,3.1742132E-1,3.187231E-1],"categories":[],"categories_nodes":[],"categories_segments":[],"categories_sizes":[],"default_left":[0,0,0,0,0,0,0,0,0,0,0,0,0,0,0,0,0,0,0,0,0,0,0,0,0,0,0],"id":7,"left_children":[1,3,5,7,-1,-1,9,11,-1,-1,13,15,17,-1,19,21,-1,23,-1,-1,25,-1,-1,-1,-1,-1,-1],"loss_changes":[1.8048042E1,2.7086282E0,1.803935E0,1.8232603E0,0E0,0E0,5.3931046E-1,1.4883423E0,0E0,0E0,4.0245056E-4,3.2806396E-3,1.9507257E0,0E0,2.1648407E-4,9.317398E-4,0E0,8.196275E-1,0E0,0E0,1.5258789E-5,0E0,0E0,0E0,0E0,0E0,0E0],"parents":[2147483647,0,0,1,1,2,2,3,3,6,6,7,7,10,10,11,11,12,12,14,14,15,15,17,17,20,20],"right_children":[2,4,6,8,-1,-1,10,12,-1,-1,14,16,18,-1,20,22,-1,24,-1,-1,26,-1,-1,-1,-1,-1,-1],"split_conditions":[1.6926223E-1,1.9160458E0,-4.04614E-1,1.1248414E-1,2.4938914E-1,-1.17733054E-1,2.910375E-1,-3.1297594E-1,1.5076187E-1,1.434609E-1,-5.3005224E-1,1.3856252E0,4.961208E-1,3.243411E-1,5.7849556E-2,-9.61532E-3,-3.3685753E-1,8.303203E-1,1.38347E-1,3.217753E-1,1.421571E0,-3.1871274E-1,-3.273319E-1,-3.2829782E-1,-1.6590962E-2,3.1742132E-1,3.187231E-1],"split_indices":[22,24,26,13,0,0,22,26,0,0,1,1,1,0,26,10,0,4,0,0,15,0,0,0,0,0,0],"split_type":[0,0,0,0,0,0,0,0,0,0,0,0,0,0,0,0,0,0,0,0,0,0,0,0,0,0,0],"sum_hessian":[3.1536642E1,1.7988266E1,1.3548376E1,1.6844265E1,1.1440017E0,1.0438066E0,1.2504569E1,1.5771302E1,1.0729618E0,1.8540972E0,1.0650472E1,1.0153989E1,5.617314E0,1.0610509E0,9.589421E0,8.980025E0,1.1739628E0,3.9125996E0,1.7047142E0,1.3033849E0,8.2860365E0,7.6527596E0,1.3272661E0,2.8818219E0,1.0307778E0,7.184697E0,1.1013389E0],"tree_param":{"num_deleted":"0","num_feature":"31","num_nodes":"27","size_leaf_vector":"1"}},{"base_weights":[-3.7643574E-3,-6.0555834E-1,8.338813E-1,-7.3689014E-1,2.678423E-1,-1.3097401E-1,9.67604E-1,-9.440896E-1,-3.8067096E-1,7.420774E-2,1.0520196E0,-1.4545994E-1,-1.0629921E0,-8.1850415E-1,2.1402438E-1,3.3276477E-1,1.0437124E0,-1.0518233E0,-3.3812726E-1,-4.324862E-2,-1.0888845E0,3.1560642E-1,3.1271046E-1,-3.136273E-1,-3.2451695E-1,-3.1870767E-1,-3.3831072E-1],"categories":[],"categories_nodes":[],"categories_segments":[],"categories_sizes":[],"default_left":[0,0,0,0,0,0,0,0,0,0,0,0,0,0,0,0,0,0,0,0,0,0,0,0,0,0,0],"id":8,"left_children":[1,3,5,7,-1,-1,9,11,13,-1,15,-1,17,19,-1,-1,21,23,-1,-1,25,-1,-1,-1,-1,-1,-1],"loss_changes":[1.2781553E1,2.9035563E0,1.8009286E0,1.0012865E0,0E0,0E0,5.831356E-1,4.683318E-1,2.389851E0,0E0,4.0769577E-3,0E0,4.87566E-3,6.4965296E-1,0E0,0E0,8.201599E-5,1.1081696E-3,0E0,0E0,2.616644E-3,0E0,0E0,0E0,0E0,0E0,0E0],"parents":[2147483647,0,0,1,1,2,2,3,3,6,6,7,7,8,8,10,10,12,12,13,13,16,16,17,17,20,20],"right_children":[2,4,6,8,-1,-1,10,12,14,-1,16,-1,18,20,-1,-1,22,24,-1,-1,26,-1,-1,-1,-1,-1,-1],"split_conditions":[1.07998595E-1,8.5079354E-1,-1.0049179E0,-4.0539238E-1,2.678423E-1,-1.3097401E-1,-3.547591E-1,-5.507305E-1,1.2777346E-1,7.420774E-2,2.910375E-1,-1.4545994E-1,-2.6289812E-1,-7.40738E-1,2.1402438E-1,3.3276477E-1,5.7849556E-2,1.1948715E-2,-3.3812726E-1,-4.324862E-2,-3.507438E-5,3.1560642E-1,3.1271046E-1,-3.136273E-1,-3.2451695E-1,-3.1870767E-1,-3.3831072E-1],"split_indices":[20,27,1,23,0,0,26,18,24,0,22,0,7,19,0,0,26,10,0,0,22,0,0,0,0,0,0],"split_type":[0,0,0,0,0,0,0,0,0,0,0,0,0,0,0,0,0,0,0,0,0,0,0,0,0,0,0],"sum_hessian":[2.535569E1,1.4755106E1,1.0600583E1,1.3566043E1,1.1890632E0,1.0095098E0,9.591074E0,8.577075E0,4.9889684E0,1.0061843E0,8.584889E0,1.7640405E0,6.813034E0,3.5630863E0,1.425882E0,1.0887194E0,7.49617E0,5.8020825E0,1.0109516E0,1.019759E0,2.543327E0,1.0436667E0,6.452503E0,4.779296E0,1.0227864E0,1.5109099E0,1.0324172E0],"tree_param":{"num_deleted":"0","num_feature":"31","num_nodes":"27","size_leaf_vector":"1"}},{"base_weights":[-3.574051E-3,-4.7233737E-1,9.240798E-1,-7.8129673E-1,8.362625E-2,7.288211E-2,1.0422184E0,-1.0054915E0,1.8444866E-2,-2.453764E-1,6.52853E-1,3.2216048E-1,1.034903E0,-1.065919E0,-1.9786401E-1,7.5907E-2,3.383034E-1,3.142692E-1,3.0942804E-1,-1.0373639E0,-3.4394503E-1,-3.101389E-1,-3.1452733E-1],"categories":[],"categories_nodes":[],"categories_segments":[],"categories_sizes":[],"default_left":[0,0,0,0,0,0,0,0,0,0,0,0,0,0,0,0,0,0,0,0,0,0,0],"id":9,"left_children":[1,3,5,7,9,-1,11,13,-1,-1,15,-1,17,19,-1,-1,-1,-1,-1,21,-1,-1,-1],"loss_changes":[8.886624E0,2.3319323E0,5.5203104E-1,1.6488318E0,2.488663E0,0E0,1.3513565E-3,1.4409065E-1,0E0,0E0,5.6434214E-1,0E0,2.0694733E-4,1.3496399E-2,0E0,0E0,0E0,0E0,0E0,1.6880035E-4,0E0,0E0,0E0],"parents":[2147483647,0,0,1,1,2,2,3,3,4,4,6,6,7,7,10,10,12,12,13,13,19,19],"right_children":[2,4,6,8,10,-1,12,14,-1,-1,16,-1,18,20,-1,-1,-1,-1,-1,22,-1,-1,-1],"split_conditions":[3.0588812E-1,2.7003586E-1,-6.8534315E-1,-1.2954368E-1,-4.0539238E-1,7.288211E-2,-2.4163213E-2,7.497393E-1,1.8444866E-2,-2.453764E-1,8.1488766E-2,3.2216048E-1,-1.964881E-1,-1.13431916E-1,-1.9786401E-1,7.5907E-2,3.383034E-1,3.142692E-1,3.0942804E-1,-2.8404298E-1,-3.4394503E-1,-3.101389E-1,-3.1452733E-1],"split_indices":[22,21,4,13,23,0,12,18,0,0,24,0,1,7,0,0,0,0,0,20,0,0,0],"split_type":[0,0,0,0,0,0,0,0,0,0,0,0,0,0,0,0,0,0,0,0,0,0,0],"sum_hessian":[2.0436062E1,1.3575881E1,6.860182E0,8.726437E0,4.849444E0,1.013982E0,5.8462E0,6.8928213E0,1.8336157E0,1.8768567E0,2.972587E0,1.0975345E0,4.7486653E0,5.8678555E0,1.0249654E0,1.6137338E0,1.3588535E0,1.0228505E0,3.7258148E0,4.33233E0,1.5355257E0,3.2758608E0,1.0564693E0],"tree_param":{"num_deleted":"0","num_feature":"31","num_nodes":"23","size_leaf_vector":"1"}},{"base_weights":[-2.4961003E-3,-5.470131E-1,7.1256214E-1,-7.738299E-1,9.183869E-2,-1.1703459E-1,8.913113E-1,3.0379696E-2,-9.125427E-1,7.517992E-2,1.0393869E0,-1.0215744E0,-1.10500276E-1,3.3055463E-1,1.023801E0,-2.7096075E-1,-1.0486499E0,3.0800897E-1,3.0684257E-1,-3.096949E-1,-3.3088884E-1],"categories":[],"categories_nodes":[],"categories_segments":[],"categories_sizes":[],"default_left":[0,0,0,0,0,0,0,0,0,0,0,0,0,0,0,0,0,0,0,0,0],"id":10,"left_children":[1,3,5,7,-1,-1,9,-1,11,-1,13,15,-1,-1,17,-1,19,-1,-1,-1,-1],"loss_changes":[6.5195794E0,1.8394194E0,1.4267466E0,9.1152954E-1,0E0,0E0,5.909543E-1,0E0,3.8460445E-1,0E0,4.9233437E-3,1.7305374E-2,0E0,0E0,1.001358E-5,0E0,3.8962364E-3,0E0,0E0,0E0,0E0],"parents":[2147483647,0,0,1,1,2,2,3,3,6,6,8,8,10,10,11,11,14,14,16,16],"right_children":[2,4,6,8,-1,-1,10,-1,12,-1,14,16,-1,-1,18,-1,20,-1,-1,-1,-1],"split_conditions":[8.5432E-2,-4.1512668E-2,-9.3774176E-1,-1.0731615E0,9.183869E-2,-1.1703459E-1,-1.0246584E-1,3.0379696E-2,1.026551E0,7.517992E-2,2.1116742E-1,-8.253086E-1,-1.10500276E-1,3.3055463E-1,5.6285816E-1,-2.7096075E-1,-1.7230251E-1,3.0800897E-1,3.0684257E-1,-3.096949E-1,-3.3088884E-1],"split_indices":[7,13,1,14,0,0,20,0,21,0,20,15,0,0,7,0,22,0,0,0,0],"split_type":[0,0,0,0,0,0,0,0,0,0,0,0,0,0,0,0,0,0,0,0,0],"sum_hessian":[1.674429E1,9.505699E0,7.2385907E0,7.509279E0,1.9964201E0,1.0097272E0,6.2288632E0,1.0274458E0,6.481833E0,1.1693186E0,5.0595446E0,5.399955E0,1.081878E0,1.0103562E0,4.0491886E0,1.0052301E0,4.394725E0,1.033213E0,3.0159755E0,3.3786724E0,1.0160525E0],"tree_param":{"num_deleted":"0","num_feature":"31","num_nodes":"21","size_leaf_vector":"1"}},{"base_weights":[-2.3015172E-3,-3.961073E-1,8.4014827E-1,-1.0631832E0,-1.13708794E-1,5.9902344E-2,1.0254279E0,-3.0759627E-1,-3.3979988E-1,-5.181556E-1,5.568981E-1,3.1253037E-1,1.0185263E0,1.3982375E-2,-1.0332325E0,3.020401E-1,-1.5307355E-2,3.0626497E-1,3.050292E-1,2.041215E-1,-1.9095355E-1,-3.0648452E-1,-3.1381533E-1],"categories":[],"categories_nodes":[],"categories_segments":[],"categories_sizes":[],"default_left":[0,0,0,0,0,0,0,0,0,0,0,0,0,0,0,0,0,0,0,0,0,0,0],"id":11,"left_children":[1,3,5,7,9,-1,11,-1,-1,13,15,-1,17,19,21,-1,-1,-1,-1,-1,-1,-1,-1],"loss_changes":[4.6579905E0,1.8023778E0,5.307317E-1,7.483959E-3,1.8231815E0,0E0,3.8933754E-4,0E0,0E0,1.1493037E0,6.91669E-1,0E0,7.867813E-6,8.940632E-1,3.1542778E-4,0E0,0E0,0E0,0E0,0E0,0E0,0E0,0E0],"parents":[2147483647,0,0,1,1,2,2,3,3,4,4,6,6,9,9,10,10,12,12,13,13,14,14],"right_children":[2,4,6,8,10,-1,12,-1,-1,14,16,-1,18,20,22,-1,-1,-1,-1,-1,-1,-1,-1],"split_conditions":[4.6531236E-1,-5.5321646E-1,2.7663766E-3,-1.03989564E-1,-1.6818094E-1,5.9902344E-2,-1.5942542E-1,-3.0759627E-1,-3.3979988E-1,-4.4275355E-1,-2.7349055E-1,3.1253037E-1,7.4757636E-1,-7.3250395E-1,-2.5919583E-1,3.020401E-1,-1.5307355E-2,3.0626497E-1,3.050292E-1,2.041215E-1,-1.9095355E-1,-3.0648452E-1,-3.1381533E-1],"split_indices":[27,1,20,22,23,0,1,0,0,18,17,0,6,15,12,0,0,0,0,0,0,0,0],"split_type":[0,0,0,0,0,0,0,0,0,0,0,0,0,0,0,0,0,0,0,0,0,0,0],"sum_hessian":[1.4040173E1,9.567716E0,4.4724574E0,2.8456872E0,6.7220283E0,1.0035154E0,3.468942E0,1.8419867E0,1.0037005E0,4.1931295E0,2.5288987E0,1.0300373E0,2.4389048E0,2.0624082E0,2.1307213E0,1.4533359E0,1.075563E0,1.0430522E0,1.3958526E0,1.0187317E0,1.0436764E0,1.1177927E0,1.0129286E0],"tree_param":{"num_deleted":"0","num_feature":"31","num_nodes":"23","size_leaf_vector":"1"}},{"base_weights":[-4.1563106E-3,-4.8032176E-1,6.3390285E-1,1.3351521E-2,-8.614985E-1,3.7271401E-3,9.630068E-1,-1.6303064E-1,2.9227296E-1,-1.032443E0,-1.20538235E-1,2.4010521E-1,1.0369241E0,-3.0741298E-1,-3.1317768E-1,3.188448E-1,3.0446932E-1],"categories":[],"categories_nodes":[],"categories_segments":[],"categories_sizes":[],"default_left":[0,0,0,0,0,0,0,0,0,0,0,0,0,0,0,0,0],"id":12,"left_children":[1,3,5,7,9,-1,11,-1,-1,13,-1,-1,15,-1,-1,-1,-1],"loss_changes":[3.4920533E0,1.2385578E0,1.0046307E0,1.5342876E0,2.9186964E-1,0E0,3.860879E-2,0E0,0E0,2.3841858E-4,0E0,0E0,1.2569427E-3,0E0,0E0,0E0,0E0],"parents":[2147483647,0,0,1,1,2,2,3,3,4,4,6,6,9,9,12,12],"right_children":[2,4,6,8,10,-1,12,-1,-1,14,-1,-1,16,-1,-1,-1,-1],"split_conditions":[5.614986E-2,-7.3306304E-1,-1.2685E-1,-6.8784636E-1,1.3060933E-1,3.7271401E-3,1.8536253E-1,-1.6303064E-1,2.9227296E-1,-5.065764E-1,-1.20538235E-1,2.4010521E-1,9.769696E-2,-3.0741298E-1,-3.1317768E-1,3.188448E-1,3.0446932E-1],"split_indices":[7,15,23,25,0,0,17,0,0,7,0,0,1,0,0,0,0],"split_type":[0,0,0,0,0,0,0,0,0,0,0,0,0,0,0,0,0],"sum_hessian":[1.1493755E1,6.5818834E0,4.911872E0,2.867761E0,3.7141223E0,1.7005532E0,3.2113185E0,1.8156726E0,1.0520881E0,2.7073658E0,1.0067568E0,1.0033827E0,2.2079358E0,1.6179029E0,1.0894629E0,1.0148865E0,1.1930494E0],"tree_param":{"num_deleted":"0","num_feature":"31","num_nodes":"17","size_leaf_vector":"1"}},{"base_weights":[-2.1423309E-3,-2.4083166E-1,3.0729496E-1,-9.8766446E-1,3.740385E-2,-2.7274415E-1,-3.2036158E-1,-3.7128422E-1,6.713519E-1,-3.0883464E-1,4.51115E-2,3.2211405E-1,8.635667E-2],"categories":[],"categories_nodes":[],"categories_segments":[],"categories_sizes":[],"default_left":[0,0,0,0,0,0,0,0,0,0,0,0,0],"id":13,"left_children":[1,3,-1,5,7,-1,-1,9,11,-1,-1,-1,-1],"loss_changes":[2.384597E0,1.6408793E0,0E0,1.3496399E-2,1.490586E0,0E0,0E0,1.2010223E0,3.4797418E-1,0E0,0E0,0E0,0E0],"parents":[2147483647,0,0,1,1,3,3,4,4,7,7,8,8],"right_children":[2,4,-1,6,8,-1,-1,10,12,-1,-1,-1,-1],"split_conditions":[9.306002E-1,-5.5321646E-1,3.0729496E-1,-7.0260155E-1,-1.0472032E-1,-2.7274415E-1,-3.2036158E-1,-3.1297594E-1,-4.7812968E-1,-3.0883464E-1,4.51115E-2,3.2211405E-1,8.635667E-2],"split_indices":[27,1,0,11,13,0,0,26,15,0,0,0,0],"split_type":[0,0,0,0,0,0,0,0,0,0,0,0,0],"sum_hessian":[9.732858E0,7.896608E0,1.8362496E0,2.1433852E0,5.7532225E0,1.0831143E0,1.060271E0,3.4980989E0,2.2551236E0,1.546679E0,1.9514198E0,1.1004924E0,1.1546314E0],"tree_param":{"num_deleted":"0","num_feature":"31","num_nodes":"13","size_leaf_vector":"1"}},{"base_weights":[-4.699638E-3,-3.628182E-1,6.438842E-1,-6.394984E-1,7.242011E-2,-2.3159813E-2,3.0819234E-1,-9.478414E-1,-2.845152E-2,-2.4943942E-1,-3.11735E-1],"categories":[],"categories_nodes":[],"categories_segments":[],"categories_sizes":[],"default_left":[0,0,0,0,0,0,0,0,0,0,0],"id":14,"left_children":[1,3,5,7,-1,-1,-1,9,-1,-1,-1],"loss_changes":[1.8891932E0,8.7603366E-1,7.9997003E-1,6.03637E-1,0E0,0E0,0E0,2.4377108E-2,0E0,0E0,0E0],"parents":[2147483647,0,0,1,1,2,2,3,3,7,7],"right_children":[2,4,6,8,-1,-1,-1,10,-1,-1,-1],"split_conditions":[1.890653E-1,-1.0472032E-1,-1.393338E-1,6.499309E-1,7.242011E-2,-2.3159813E-2,3.0819234E-1,-4.7673124E-1,-2.845152E-2,-2.4943942E-1,-3.11735E-1],"split_indices":[7,13,21,21,0,0,0,17,0,0,0],"split_type":[0,0,0,0,0,0,0,0,0,0,0],"sum_hessian":[8.133609E0,5.2402062E0,2.893403E0,3.594318E0,1.6458883E0,1.004429E0,1.8889742E0,2.2950451E0,1.2992727E0,1.0088142E0,1.286231E0],"tree_param":{"num_deleted":"0","num_feature":"31","num_nodes":"11","size_leaf_vector":"1"}},{"base_weights":[-3.413449E-3,-5.962148E-1,3.707409E-1,-3.0538154E-1,1.076903E-3,1.131098E-3,3.057353E-1,-1.5964058E-1,1.5722546E-1],"categories":[],"categories_nodes":[],"categories_segments":[],"categories_sizes":[],"default_left":[0,0,0,0,0,0,0,0,0],"id":15,"left_children":[1,3,5,-1,-1,7,-1,-1,-1],"loss_changes":[1.5798105E0,6.9715136E-1,1.0464494E0,0E0,0E0,7.7560544E-1,0E0,0E0,0E0],"parents":[2147483647,0,0,1,1,2,2,5,5],"right_children":[2,4,6,-1,-1,8,-1,-1,-1],"split_conditions":[-3.1297594E-1,4.916221E-3,1.4815985E-1,-3.0538154E-1,1.076903E-3,2.7003586E-1,3.057353E-1,-1.5964058E-1,1.5722546E-1],"split_indices":[26,13,23,0,0,21,0,0,0],"split_type":[0,0,0,0,0,0,0,0,0],"sum_hessian":[7.122703E0,2.7560627E0,4.3666406E0,1.6182605E0,1.1378021E0,2.781205E0,1.5854356E0,1.3770248E0,1.4041802E0],"tree_param":{"num_deleted":"0","num_feature":"31","num_nodes":"9","size_leaf_vector":"1"}},{"base_weights":[-3.2068554E-3,-2.4940152E-1,2.1924062E-1,-1.8438014E-1,4.98862E-1,2.5873682E-1,3.0379385E-1,-5.2752677E-2,2.0882411E-1],"categories":[],"categories_nodes":[],"categories_segments":[],"categories_sizes":[],"default_left":[0,0,0,0,0,0,0,0,0],"id":16,"left_children":[1,-1,3,-1,5,7,-1,-1,-1],"loss_changes":[1.129834E0,0E0,1.127229E0,0E0,4.466669E-1,4.6894282E-1,0E0,0E0,0E0],"parents":[2147483647,0,0,2,2,4,4,5,5],"right_children":[2,-1,4,-1,6,8,-1,-1,-1],"split_conditions":[-9.9989E-1,-2.4940152E-1,-4.8005882E-1,-1.8438014E-1,3.0588812E-1,6.862599E-2,3.0379385E-1,-5.2752677E-2,2.0882411E-1],"split_indices":[24,0,13,0,22,21,0,0,0],"split_type":[0,0,0,0,0,0,0,0,0],"sum_hessian":[6.133207E0,1.2986325E0,4.8345747E0,1.2140954E0,3.620479E0,2.4673338E0,1.1531453E0,1.2375782E0,1.2297556E0],"tree_param":{"num_deleted":"0","num_feature":"31","num_nodes":"9","size_leaf_vector":"1"}},{"base_weights":[2.4945417E-3,-3.0514416E-1,5.18874E-1,9.547992E-2,-2.7570915E-1,6.0791366E-2,2.505536E-1,-7.421609E-2,1.2863278E-1],"categories":[],"categories_nodes":[],"categories_segments":[],"categories_sizes":[],"default_left":[0,0,0,0,0,0,0,0,0],"id":17,"left_children":[1,3,5,7,-1,-1,-1,-1,-1],"loss_changes":[8.602635E-1,8.3460104E-1,2.0222819E-1,2.3466119E-1,0E0,0E0,0E0,0E0,0E0],"parents":[2147483647,0,0,1,1,2,2,3,3],"right_children":[2,4,6,8,-1,-1,-1,-1,-1],"split_conditions":[2.6805443E-1,-4.8819283E-1,-1.7804119E-1,-4.2644158E-1,-2.7570915E-1,6.0791366E-2,2.505536E-1,-7.421609E-2,1.2863278E-1],"split_indices":[27,15,13,17,0,0,0,0,0],"split_type":[0,0,0,0,0,0,0,0,0],"sum_hessian":[5.4152856E0,3.3935444E0,2.0217412E0,2.0534544E0,1.34009E0,1.0109817E0,1.0107596E0,1.0121937E0,1.0412606E0],"tree_param":{"num_deleted":"0","num_feature":"31","num_nodes":"9","size_leaf_vector":"1"}},{"base_weights":[-4.602432E-4,-2.3089647E-1,2.0238426E-1,-8.799869E-2,5.66737E-1,7.206557E-2,2.9329348E-1],"categories":[],"categories_nodes":[],"categories_segments":[],"categories_sizes":[],"default_left":[0,0,0,0,0,0,0],"id":18,"left_children":[1,-1,3,-1,5,-1,-1],"loss_changes":[7.729394E-1,0E0,7.080289E-1,0E0,3.0314356E-1,0E0,0E0],"parents":[2147483647,0,0,2,2,4,4],"right_children":[2,-1,4,-1,6,-1,-1],"split_conditions":[-6.620881E-1,-2.3089647E-1,-3.7942946E-1,-8.799869E-2,-1.1874092E-1,7.206557E-2,2.9329348E-1],"split_indices":[1,0,4,0,13,0,0],"split_type":[0,0,0,0,0,0,0],"sum_hessian":[4.953882E0,1.0337726E0,3.9201093E0,1.6606892E0,2.2594202E0,1.2589933E0,1.0004269E0],"tree_param":{"num_deleted":"0","num_feature":"31","num_nodes":"7","size_leaf_vector":"1"}},{"base_weights":[2.420839E-3,-1.3916576E-1,2.9692525E-1,-5.735545E-2,2.0549765E-1],"categories":[],"categories_nodes":[],"categories_segments":[],"categories_sizes":[],"default_left":[0,0,0,0,0],"id":19,"left_children":[1,-1,3,-1,-1],"loss_changes":[6.2733847E-1,0E0,5.303445E-1,0E0,0E0],"parents":[2147483647,0,0,2,2],"right_children":[2,-1,4,-1,-1],"split_conditions":[-3.1297594E-1,-1.3916576E-1,-8.3895445E-2,-5.735545E-2,2.0549765E-1],"split_indices":[26,0,20,0,0],"split_type":[0,0,0,0,0],"sum_hessian":[4.5681286E0,1.7682884E0,2.7998402E0,1.240075E0,1.5597652E0],"tree_param":{"num_deleted":"0","num_feature":"31","num_nodes":"5","size_leaf_vector":"1"}},{"base_weights":[4.4563725E-3,-1.7425695E-1,2.3805934E-1,-4.89641E-2,1.7337547E-1],"categories":[],"categories_nodes":[],"categories_segments":[],"categories_sizes":[],"default_left":[0,0,0,0,0],"id":20,"left_children":[1,-1,3,-1,-1],"loss_changes":[5.856032E-1,0E0,4.1746965E-1,0E0,0E0],"parents":[2147483647,0,0,2,2],"right_children":[2,-1,4,-1,-1],"split_conditions":[-4.144302E-1,-1.7425695E-1,-3.7942946E-1,-4.89641E-2,1.7337547E-1],"split_indices":[21,0,4,0,0],"split_type":[0,0,0,0,0],"sum_hessian":[4.28289E0,1.2217311E0,3.0611587E0,1.4037472E0,1.6574115E0],"tree_param":{"num_deleted":"0","num_feature":"31","num_nodes":"5","size_leaf_vector":"1"}},{"base_weights":[3.58015E-3,-2.2667956E-1,1.5537049E-1,-1.7384674E-1,7.5584896E-2],"categories":[],"categories_nodes":[],"categories_segments":[],"categories_sizes":[],"default_left":[0,0,0,0,0],"id":21,"left_children":[1,3,-1,-1,-1],"loss_changes":[4.8090535E-1,4.7366267E-1,0E0,0E0,0E0],"parents":[2147483647,0,0,1,1],"right_children":[2,4,-1,-1,-1],"split_conditions":[1.2307429E-1,2.4558905E-1,1.5537049E-1,-1.7384674E-1,7.5584896E-2],"split_indices":[3,24,0,0,0],"split_type":[0,0,0,0,0],"sum_hessian":[4.0607533E0,2.8049765E0,1.2557771E0,1.6147237E0,1.1902527E0],"tree_param":{"num_deleted":"0","num_feature":"31","num_nodes":"5","size_leaf_vector":"1"}},{"base_weights":[1.2155675E-3,-2.6370317E-1,1.1043113E-1,-2.0576699E-1,6.799985E-2],"categories":[],"categories_nodes":[],"categories_segments":[],"categories_sizes":[],"default_left":[0,0,0,0,0],"id":22,"left_children":[1,3,-1,-1,-1],"loss_changes":[3.6983725E-1,4.5744795E-1,0E0,0E0,0E0],"parents":[2147483647,0,0,1,1],"right_children":[2,4,-1,-1,-1],"split_conditions":[-1.2954368E-1,5.582321E-1,1.1043113E-1,-2.0576699E-1,6.799985E-2],"split_indices":[13,21,0,0,0],"split_type":[0,0,0,0,0],"sum_hessian":[3.8050814E0,2.2095976E0,1.5954838E0,1.1873451E0,1.0222524E0],"tree_param":{"num_deleted":"0","num_feature":"31","num_nodes":"5","size_leaf_vector":"1"}},{"base_weights":[-2.2193599E-3,-9.94373E-2,9.379638E-2],"categories":[],"categories_nodes":[],"categories_segments":[],"categories_sizes":[],"default_left":[0,0,0],"id":23,"left_children":[1,-1,-1],"loss_changes":[3.7431177E-1,0E0,0E0],"parents":[2147483647,0,0],"right_children":[2,-1,-1],"split_conditions":[-1.2838659E-1,-9.94373E-2,9.379638E-2],"split_indices":[28,0,0],"split_type":[0,0,0],"sum_hessian":[3.6106563E0,1.7650682E0,1.8455882E0],"tree_param":{"num_deleted":"0","num_feature":"31","num_nodes":"3","size_leaf_vector":"1"}},{"base_weights":[-1.7246029E-3,1.378346E-1,-1.9214399E-1,-2.2766069E-1,1.1397398E-1],"categories":[],"categories_nodes":[],"categories_segments":[],"categories_sizes":[],"default_left":[0,0,0,0,0],"id":24,"left_children":[1,-1,3,-1,-1],"loss_changes":[3.0958807E-1,0E0,8.089267E-1,0E0,0E0],"parents":[2147483647,0,0,2,2],"right_children":[2,-1,4,-1,-1],"split_conditions":[-7.3306304E-1,1.378346E-1,8.5432E-2,-2.2766069E-1,1.1397398E-1],"split_indices":[15,0,7,0,0],"split_type":[0,0,0,0,0],"sum_hessian":[3.525403E0,1.0302516E0,2.4951513E0,1.2534175E0,1.2417338E0],"tree_param":{"num_deleted":"0","num_feature":"31","num_nodes":"5","size_leaf_vector":"1"}},{"base_weights":[-5.6164474E-3,-2.0434426E-1,1.279431E-1,5.1597048E-2,-1.8097919E-1],"categories":[],"categories_nodes":[],"categories_segments":[],"categories_sizes":[],"default_left":[0,0,0,0,0],"id":25,"left_children":[1,3,-1,-1,-1],"loss_changes":[2.816026E-1,3.3723426E-1,0E0,0E0,0E0],"parents":[2147483647,0,0,1,1],"right_children":[2,4,-1,-1,-1],"split_conditions":[1.2307429E-1,-3.52575E-1,1.279431E-1,5.1597048E-2,-1.8097919E-1],"split_indices":[3,18,0,0,0],"split_type":[0,0,0,0,0],"sum_hessian":[3.2794435E0,2.2463202E0,1.0331231E0,1.1558808E0,1.0904396E0],"tree_param":{"num_deleted":"0","num_feature":"31","num_nodes":"5","size_leaf_vector":"1"}},{"base_weights":[-5.9021916E-3,-9.276565E-2,8.753406E-2],"categories":[],"categories_nodes":[],"categories_segments":[],"categories_sizes":[],"default_left":[0,0,0],"id":26,"left_children":[1,-1,-1],"loss_changes":[2.821859E-1,0E0,0E0],"parents":[2147483647,0,0],"right_children":[2,-1,-1],"split_conditions":[-1.2838659E-1,-9.276565E-2,8.753406E-2],"split_indices":[28,0,0],"split_type":[0,0,0],"sum_hessian":[3.125256E0,1.5479794E0,1.5772768E0],"tree_param":{"num_deleted":"0","num_feature":"31","num_nodes":"3","size_leaf_vector":"1"}},{"base_weights":[-4.3279794E-3,-7.306979E-2,8.967688E-2],"categories":[],"categories_nodes":[],"categories_segments":[],"categories_sizes":[],"default_left":[0,0,0],"id":27,"left_children":[1,-1,-1],"loss_changes":[2.2202794E-1,0E0,0E0],"parents":[2147483647,0,0],"right_children":[2,-1,-1],"split_conditions":[1.7645516E-1,-7.306979E-2,8.967688E-2],"split_indices":[1,0,0],"split_type":[0,0,0],"sum_hessian":[3.0603783E0,1.7107502E0,1.3496281E0],"tree_param":{"num_deleted":"0","num_feature":"31","num_nodes":"3","size_leaf_vector":"1"}},{"base_weights":[-2.981326E-3,-7.649137E-2,9.447251E-2],"categories":[],"categories_nodes":[],"categories_segments":[],"categories_sizes":[],"default_left":[0,0,0],"id":28,"left_children":[1,-1,-1],"loss_changes":[2.4091902E-1,0E0,0E0],"parents":[2147483647,0,0],"right_children":[2,-1,-1],"split_conditions":[-1.2954368E-1,-7.649137E-2,9.447251E-2],"split_indices":[13,0,0],"split_type":[0,0,0],"sum_hessian":[3.007539E0,1.6776632E0,1.3298757E0],"tree_param":{"num_deleted":"0","num_feature":"31","num_nodes":"3","size_leaf_vector":"1"}},{"base_weights":[-2.002355E-3,-1.0393514E-1,6.750082E-2],"categories":[],"categories_nodes":[],"categories_segments":[],"categories_sizes":[],"default_left":[0,0,0],"id":29,"left_children":[1,-1,-1],"loss_changes":[2.3064408E-1,0E0,0E0],"parents":[2147483647,0,0],"right_children":[2,-1,-1],"split_conditions":[-3.1297594E-1,-1.0393514E-1,6.750082E-2],"split_indices":[26,0,0],"split_type":[0,0,0],"sum_hessian":[2.949732E0,1.1717572E0,1.7779748E0],"tree_param":{"num_deleted":"0","num_feature":"31","num_nodes":"3","size_leaf_vector":"1"}},{"base_weights":[-1.8739143E-3,1.0511525E-1,-6.234323E-2],"categories":[],"categories_nodes":[],"categories_segments":[],"categories_sizes":[],"default_left":[0,0,0],"id":30,"left_children":[1,-1,-1],"loss_changes":[2.095892E-1,0E0,0E0],"parents":[2147483647,0,0],"right_children":[2,-1,-1],"split_conditions":[-5.80271E-1,1.0511525E-1,-6.234323E-2],"split_indices":[5,0,0],"split_type":[0,0,0],"sum_hessian":[2.8891735E0,1.0659121E0,1.8232615E0],"tree_param":{"num_deleted":"0","num_feature":"31","num_nodes":"3","size_leaf_vector":"1"}},{"base_weights":[-1.0919514E-3,-6.1610978E-2,9.990047E-2],"categories":[],"categories_nodes":[],"categories_segments":[],"categories_sizes":[],"default_left":[0,0,0],"id":31,"left_children":[1,-1,-1],"loss_changes":[1.947428E-1,0E0,0E0],"parents":[2147483647,0,0],"right_children":[2,-1,-1],"split_conditions":[8.5432E-2,-6.1610978E-2,9.990047E-2],"split_indices":[7,0,0],"split_type":[0,0,0],"sum_hessian":[2.8534584E0,1.7707522E0,1.0827063E0],"tree_param":{"num_deleted":"0","num_feature":"31","num_nodes":"3","size_leaf_vector":"1"}},{"base_weights":[-4.4159344E-4,9.286254E-2,-5.640744E-2],"categories":[],"categories_nodes":[],"categories_segments":[],"categories_sizes":[],"default_left":[0,0,0],"id":32,"left_children":[1,-1,-1],"loss_changes":[1.6283791E-1,0E0,0E0],"parents":[2147483647,0,0],"right_children":[2,-1,-1],"split_conditions":[-5.80271E-1,9.286254E-2,-5.640744E-2],"split_indices":[5,0,0],"split_type":[0,0,0],"sum_hessian":[2.8004184E0,1.05576E0,1.7446584E0],"tree_param":{"num_deleted":"0","num_feature":"31","num_nodes":"3","size_leaf_vector":"1"}},{"base_weights":[-1.5584053E-4,-9.570099E-2,5.880251E-2],"categories":[],"categories_nodes":[],"categories_segments":[],"categories_sizes":[],"default_left":[0,0,0],"id":33,"left_children":[1,-1,-1],"loss_changes":[1.734495E-1,0E0,0E0],"parents":[2147483647,0,0],"right_children":[2,-1,-1],"split_conditions":[-5.080523E-1,-9.570099E-2,5.880251E-2],"split_indices":[4,0,0],"split_type":[0,0,0],"sum_hessian":[2.773128E0,1.0562649E0,1.7168632E0],"tree_param":{"num_deleted":"0","num_feature":"31","num_nodes":"3","size_leaf_vector":"1"}},{"base_weights":[-4.024029E-4,-8.203855E-2,7.714884E-2],"categories":[],"categories_nodes":[],"categories_segments":[],"categories_sizes":[],"default_left":[0,0,0],"id":34,"left_children":[1,-1,-1],"loss_changes":[1.9248235E-1,0E0,0E0],"parents":[2147483647,0,0],"right_children":[2,-1,-1],"split_conditions":[-1.4557135E-1,-8.203855E-2,7.714884E-2],"split_indices":[22,0,0],"split_type":[0,0,0],"sum_hessian":[2.73682E0,1.3284531E0,1.4083669E0],"tree_param":{"num_deleted":"0","num_feature":"31","num_nodes":"3","size_leaf_vector":"1"}},{"base_weights":[-3.785096E-4,-6.1444204E-2,8.1845015E-2],"categories":[],"categories_nodes":[],"categories_segments":[],"categories_sizes":[],"default_left":[0,0,0],"id":35,"left_children":[1,-1,-1],"loss_changes":[1.4976704E-1,0E0,0E0],"parents":[2147483647,0,0],"right_children":[2,-1,-1],"split_conditions":[1.7645516E-1,-6.1444204E-2,8.1845015E-2],"split_indices":[1,0,0],"split_type":[0,0,0],"sum_hessian":[2.681554E0,1.5337962E0,1.1477578E0],"tree_param":{"num_deleted":"0","num_feature":"31","num_nodes":"3","size_leaf_vector":"1"}},{"base_weights":[-1.581763E-4,-6.79236E-2,8.772427E-2],"categories":[],"categories_nodes":[],"categories_segments":[],"categories_sizes":[],"default_left":[0,0,0],"id":36,"left_children":[1,-1,-1],"loss_changes":[1.7508481E-1,0E0,0E0],"parents":[2147483647,0,0],"right_children":[2,-1,-1],"split_conditions":[1.8856569E-1,-6.79236E-2,8.772427E-2],"split_indices":[17,0,0],"split_type":[0,0,0],"sum_hessian":[2.6449587E0,1.491525E0,1.1534336E0],"tree_param":{"num_deleted":"0","num_feature":"31","num_nodes":"3","size_leaf_vector":"1"}},{"base_weights":[-1.7233158E-5,7.4201226E-2,-7.2601676E-2],"categories":[],"categories_nodes":[],"categories_segments":[],"categories_sizes":[],"default_left":[0,0,0],"id":37,"left_children":[1,-1,-1],"loss_changes":[1.56134E-1,0E0,0E0],"parents":[2147483647,0,0],"right_children":[2,-1,-1],"split_conditions":[-4.1607353E-1,7.4201226E-2,-7.2601676E-2],"split_indices":[15,0,0],"split_type":[0,0,0],"sum_hessian":[2.6084504E0,1.2899219E0,1.3185287E0],"tree_param":{"num_deleted":"0","num_feature":"31","num_nodes":"3","size_leaf_vector":"1"}},{"base_weights":[-4.1023122E-5,-9.124474E-2,5.8024008E-2],"categories":[],"categories_nodes":[],"categories_segments":[],"categories_sizes":[],"default_left":[0,0,0],"id":38,"left_children":[1,-1,-1],"loss_changes":[1.5178303E-1,0E0,0E0],"parents":[2147483647,0,0],"right_children":[2,-1,-1],"split_conditions":[-3.1297594E-1,-9.124474E-2,5.8024008E-2],"split_indices":[26,0,0],"split_type":[0,0,0],"sum_hessian":[2.579979E0,1.0031072E0,1.5768718E0],"tree_param":{"num_deleted":"0","num_feature":"31","num_nodes":"3","size_leaf_vector":"1"}},{"base_weights":[-3.555742E-4,-6.697665E-2,8.236982E-2],"categories":[],"categories_nodes":[],"categories_segments":[],"categories_sizes":[],"default_left":[0,0,0],"id":39,"left_children":[1,-1,-1],"loss_changes":[1.5550126E-1,0E0,0E0],"parents":[2147483647,0,0],"right_children":[2,-1,-1],"split_conditions":[-1.2954368E-1,-6.697665E-2,8.236982E-2],"split_indices":[13,0,0],"split_type":[0,0,0],"sum_hessian":[2.5375512E0,1.4013618E0,1.1361893E0],"tree_param":{"num_deleted":"0","num_feature":"31","num_nodes":"3","size_leaf_vector":"1"}},{"base_weights":[-1.7655916E-4,-7.806116E-2,5.4025274E-2],"categories":[],"categories_nodes":[],"categories_segments":[],"categories_sizes":[],"default_left":[0,0,0],"id":40,"left_children":[1,-1,-1],"loss_changes":[1.1724295E-1,0E0,0E0],"parents":[2147483647,0,0],"right_children":[2,-1,-1],"split_conditions":[-1.18046574E-1,-7.806116E-2,5.4025274E-2],"split_indices":[21,0,0],"split_type":[0,0,0],"sum_hessian":[2.5013008E0,1.024072E0,1.4772286E0],"tree_param":{"num_deleted":"0","num_feature":"31","num_nodes":"3","size_leaf_vector":"1"}},{"base_weights":[-3.1820303E-4,-5.73213E-2,7.31651E-2],"categories":[],"categories_nodes":[],"categories_segments":[],"categories_sizes":[],"default_left":[0,0,0],"id":41,"left_children":[1,-1,-1],"loss_changes":[1.1498486E-1,0E0,0E0],"parents":[2147483647,0,0],"right_children":[2,-1,-1],"split_conditions":[5.723097E-2,-5.73213E-2,7.31651E-2],"split_indices":[28,0,0],"split_type":[0,0,0],"sum_hessian":[2.4684284E0,1.3858806E0,1.0825477E0],"tree_param":{"num_deleted":"0","num_feature":"31","num_nodes":"3","size_leaf_vector":"1"}},{"base_weights":[-1.5692863E-4,8.265691E-2,-5.8742598E-2],"categories":[],"categories_nodes":[],"categories_segments":[],"categories_sizes":[],"default_left":[0,0,0],"id":42,"left_children":[1,-1,-1],"loss_changes":[1.3152184E-1,0E0,0E0],"parents":[2147483647,0,0],"right_children":[2,-1,-1],"split_conditions":[-5.955332E-1,8.265691E-2,-5.8742598E-2],"split_indices":[15,0,0],"split_type":[0,0,0],"sum_hessian":[2.438421E0,1.0121976E0,1.4262233E0],"tree_param":{"num_deleted":"0","num_feature":"31","num_nodes":"3","size_leaf_vector":"1"}},{"base_weights":[-2.8739028E-5,-6.518483E-2,7.907017E-2],"categories":[],"categories_nodes":[],"categories_segments":[],"categories_sizes":[],"default_left":[0,0,0],"id":43,"left_children":[1,-1,-1],"loss_changes":[1.3831586E-1,0E0,0E0],"parents":[2147483647,0,0],"right_children":[2,-1,-1],"split_conditions":[1.8856569E-1,-6.518483E-2,7.907017E-2],"split_indices":[17,0,0],"split_type":[0,0,0],"sum_hessian":[2.4152663E0,1.3240198E0,1.0912465E0],"tree_param":{"num_deleted":"0","num_feature":"31","num_nodes":"3","size_leaf_vector":"1"}},{"base_weights":[3.4355813E-5,6.358293E-2,-6.1379194E-2],"categories":[],"categories_nodes":[],"categories_segments":[],"categories_sizes":[],"default_left":[0,0,0],"id":44,"left_children":[1,-1,-1],"loss_changes":[1.0345568E-1,0E0,0E0],"parents":[2147483647,0,0],"right_children":[2,-1,-1],"split_conditions":[-4.1607353E-1,6.358293E-2,-6.1379194E-2],"split_indices":[15,0,0],"split_type":[0,0,0],"sum_hessian":[2.3857896E0,1.1720555E0,1.213734E0],"tree_param":{"num_deleted":"0","num_feature":"31","num_nodes":"3","size_leaf_vector":"1"}},{"base_weights":[1.46233815E-5,-6.619585E-2,6.299807E-2],"categories":[],"categories_nodes":[],"categories_segments":[],"categories_sizes":[],"default_left":[0,0,0],"id":45,"left_children":[1,-1,-1],"loss_changes":[1.0968579E-1,0E0,0E0],"parents":[2147483647,0,0],"right_children":[2,-1,-1],"split_conditions":[-1.4557135E-1,-6.619585E-2,6.299807E-2],"split_indices":[22,0,0],"split_type":[0,0,0],"sum_hessian":[2.3672056E0,1.1542252E0,1.2129804E0],"tree_param":{"num_deleted":"0","num_feature":"31","num_nodes":"3","size_leaf_vector":"1"}},{"base_weights":[-3.3845914E-5,-5.5988487E-2,7.457814E-2],"categories":[],"categories_nodes":[],"categories_segments":[],"categories_sizes":[],"default_left":[0,0,0],"id":46,"left_children":[1,-1,-1],"loss_changes":[1.08298905E-1,0E0,0E0],"parents":[2147483647,0,0],"right_children":[2,-1,-1],"split_conditions":[2.221989E-1,-5.5988487E-2,7.457814E-2],"split_indices":[17,0,0],"split_type":[0,0,0],"sum_hessian":[2.3344016E0,1.3335657E0,1.000836E0],"tree_param":{"num_deleted":"0","num_feature":"31","num_nodes":"3","size_leaf_vector":"1"}},{"base_weights":[5.0768755E-5,-6.813121E-2,5.874066E-2],"categories":[],"categories_nodes":[],"categories_segments":[],"categories_sizes":[],"default_left":[0,0,0],"id":47,"left_children":[1,-1,-1],"loss_changes":[1.02781974E-1,0E0,0E0],"parents":[2147483647,0,0],"right_children":[2,-1,-1],"split_conditions":[7.190095E-2,-6.813121E-2,5.874066E-2],"split_indices":[21,0,0],"split_type":[0,0,0],"sum_hessian":[2.311478E0,1.0699174E0,1.2415605E0],"tree_param":{"num_deleted":"0","num_feature":"31","num_nodes":"3","size_leaf_vector":"1"}},{"base_weights":[-4.2626714E-5,-6.0440358E-2,6.2314097E-2],"categories":[],"categories_nodes":[],"categories_segments":[],"categories_sizes":[],"default_left":[0,0,0],"id":48,"left_children":[1,-1,-1],"loss_changes":[9.555117E-2,0E0,0E0],"parents":[2147483647,0,0],"right_children":[2,-1,-1],"split_conditions":[8.639372E-2,-6.0440358E-2,6.2314097E-2],"split_indices":[4,0,0],"split_type":[0,0,0],"sum_hessian":[2.2833245E0,1.1593275E0,1.123997E0],"tree_param":{"num_deleted":"0","num_feature":"31","num_nodes":"3","size_leaf_vector":"1"}},{"base_weights":[-3.8896073E-5,6.445105E-2,-6.2775046E-2],"categories":[],"categories_nodes":[],"categories_segments":[],"categories_sizes":[],"default_left":[0,0,0],"id":49,"left_children":[1,-1,-1],"loss_changes":[1.017337E-1,0E0,0E0],"parents":[2147483647,0,0],"right_children":[2,-1,-1],"split_conditions":[-4.1607353E-1,6.445105E-2,-6.2775046E-2],"split_indices":[15,0,0],"split_type":[0,0,0],"sum_hessian":[2.2630389E0,1.116405E0,1.1466339E0],"tree_param":{"num_deleted":"0","num_feature":"31","num_nodes":"3","size_leaf_vector":"1"}},{"base_weights":[-3.6095444E-5,-6.0282353E-2,5.6545265E-2],"categories":[],"categories_nodes":[],"categories_segments":[],"categories_sizes":[],"default_left":[0,0,0],"id":50,"left_children":[1,-1,-1],"loss_changes":[8.501315E-2,0E0,0E0],"parents":[2147483647,0,0],"right_children":[2,-1,-1],"split_conditions":[-1.4557135E-1,-6.0282353E-2,5.6545265E-2],"split_indices":[22,0,0],"split_type":[0,0,0],"sum_hessian":[2.2445877E0,1.0866028E0,1.157985E0],"tree_param":{"num_deleted":"0","num_feature":"31","num_nodes":"3","size_leaf_vector":"1"}},{"base_weights":[-6.0324513E-5,-5.3381626E-2,6.2298276E-2],"categories":[],"categories_nodes":[],"categories_segments":[],"categories_sizes":[],"default_left":[0,0,0],"id":51,"left_children":[1,-1,-1],"loss_changes":[8.198603E-2,0E0,0E0],"parents":[2147483647,0,0],"right_children":[2,-1,-1],"split_conditions":[1.8856569E-1,-5.3381626E-2,6.2298276E-2],"split_indices":[17,0,0],"split_type":[0,0,0],"sum_hessian":[2.2188873E0,1.1953082E0,1.0235791E0],"tree_param":{"num_deleted":"0","num_feature":"31","num_nodes":"3","size_leaf_vector":"1"}},{"base_weights":[-1.692849E-5,-6.2361646E-2,5.3773712E-2],"categories":[],"categories_nodes":[],"categories_segments":[],"categories_sizes":[],"default_left":[0,0,0],"id":52,"left_children":[1,-1,-1],"loss_changes":[8.201265E-2,0E0,0E0],"parents":[2147483647,0,0],"right_children":[2,-1,-1],"split_conditions":[7.190095E-2,-6.2361646E-2,5.3773712E-2],"split_indices":[21,0,0],"split_type":[0,0,0],"sum_hessian":[2.2010489E0,1.0192404E0,1.1818086E0],"tree_param":{"num_deleted":"0","num_feature":"31","num_nodes":"3","size_leaf_vector":"1"}},{"base_weights":[-6.9177695E-5,-5.3481188E-2,6.2936775E-2],"categories":[],"categories_nodes":[],"categories_segments":[],"categories_sizes":[],"default_left":[0,0,0],"id":53,"left_children":[1,-1,-1],"loss_changes":[8.147072E-2,0E0,0E0],"parents":[2147483647,0,0],"right_children":[2,-1,-1],"split_conditions":[-1.2954368E-1,-5.3481188E-2,6.2936775E-2],"split_indices":[13,0,0],"split_type":[0,0,0],"sum_hessian":[2.1785297E0,1.1781255E0,1.0004044E0],"tree_param":{"num_deleted":"0","num_feature":"31","num_nodes":"3","size_leaf_vector":"1"}},{"base_weights":[-1.4254099E-5,-5.999568E-2,5.6519907E-2],"categories":[],"categories_nodes":[],"categories_segments":[],"categories_sizes":[],"default_left":[0,0,0],"id":54,"left_children":[1,-1,-1],"loss_changes":[8.134296E-2,0E0,0E0],"parents":[2147483647,0,0],"right_children":[2,-1,-1],"split_conditions":[-1.2838659E-1,-5.999568E-2,5.6519907E-2],"split_indices":[28,0,0],"split_type":[0,0,0],"sum_hessian":[2.1589305E0,1.0473439E0,1.1115866E0],"tree_param":{"num_deleted":"0","num_feature":"31","num_nodes":"3","size_leaf_vector":"1"}},{"base_weights":[-3.592121E-5,6.025703E-2,-5.9090078E-2],"categories":[],"categories_nodes":[],"categories_segments":[],"categories_sizes":[],"default_left":[0,0,0],"id":55,"left_children":[1,-1,-1],"loss_changes":[8.4577024E-2,0E0,0E0],"parents":[2147483647,0,0],"right_children":[2,-1,-1],"split_conditions":[-4.1607353E-1,6.025703E-2,-5.9090078E-2],"split_indices":[15,0,0],"split_type":[0,0,0],"sum_hessian":[2.1378326E0,1.0582707E0,1.0795621E0],"tree_param":{"num_deleted":"0","num_feature":"31","num_nodes":"3","size_leaf_vector":"1"}},{"base_weights":[-3.254285E-5,-5.4367065E-2,5.352996E-2],"categories":[],"categories_nodes":[],"categories_segments":[],"categories_sizes":[],"default_left":[0,0,0],"id":56,"left_children":[1,-1,-1],"loss_changes":[6.864308E-2,0E0,0E0],"parents":[2147483647,0,0],"right_children":[2,-1,-1],"split_conditions":[8.639372E-2,-5.4367065E-2,5.352996E-2],"split_indices":[4,0,0],"split_type":[0,0,0],"sum_hessian":[2.1227791E0,1.0533481E0,1.0694312E0],"tree_param":{"num_deleted":"0","num_feature":"31","num_nodes":"3","size_leaf_vector":"1"}},{"base_weights":[-3.1831503E-5,4.6272773E-2,-5.0866198E-2],"categories":[],"categories_nodes":[],"categories_segments":[],"categories_sizes":[],"default_left":[0,0,0],"id":57,"left_children":[1,-1,-1],"loss_changes":[5.5129018E-2,0E0,0E0],"parents":[2147483647,0,0],"right_children":[2,-1,-1],"split_conditions":[-4.4275355E-1,4.6272773E-2,-5.0866198E-2],"split_indices":[18,0,0],"split_type":[0,0,0],"sum_hessian":[2.1079454E0,1.1036037E0,1.0043417E0],"tree_param":{"num_deleted":"0","num_feature":"31","num_nodes":"3","size_leaf_vector":"1"}},{"base_weights":[-3.895991E-5,-5.1393602E-2,4.7048055E-2],"categories":[],"categories_nodes":[],"categories_segments":[],"categories_sizes":[],"default_left":[0,0,0],"id":58,"left_children":[1,-1,-1],"loss_changes":[5.631148E-2,0E0,0E0],"parents":[2147483647,0,0],"right_children":[2,-1,-1],"split_conditions":[-1.4557135E-1,-5.1393602E-2,4.7048055E-2],"split_indices":[22,0,0],"split_type":[0,0,0],"sum_hessian":[2.0959415E0,1.0019597E0,1.0939817E0],"tree_param":{"num_deleted":"0","num_feature":"31","num_nodes":"3","size_leaf_vector":"1"}},{"base_weights":[-4.6049958E-5,-4.919794E-2,4.605268E-2],"categories":[],"categories_nodes":[],"categories_segments":[],"categories_sizes":[],"default_left":[0,0,0],"id":59,"left_children":[1,-1,-1],"loss_changes":[5.2322026E-2,0E0,0E0],"parents":[2147483647,0,0],"right_children":[2,-1,-1],"split_conditions":[-1.2838659E-1,-4.919794E-2,4.605268E-2],"split_indices":[28,0,0],"split_type":[0,0,0],"sum_hessian":[2.0783393E0,1.005158E0,1.0731814E0],"tree_param":{"num_deleted":"0","num_feature":"31","num_nodes":"3","size_leaf_vector":"1"}},{"base_weights":[-4.67847E-5,-4.8749235E-2,4.639857E-2],"categories":[],"categories_nodes":[],"categories_segments":[],"categories_sizes":[],"default_left":[0,0,0],"id":60,"left_children":[1,-1,-1],"loss_changes":[5.1885825E-2,0E0,0E0],"parents":[2147483647,0,0],"right_children":[2,-1,-1],"split_conditions":[6.68455E-2,-4.8749235E-2,4.639857E-2],"split_indices":[17,0,0],"split_type":[0,0,0],"sum_hessian":[2.0644865E0,1.0070469E0,1.0574396E0],"tree_param":{"num_deleted":"0","num_feature":"31","num_nodes":"3","size_leaf_vector":"1"}},{"base_weights":[-4.220687E-5,5.4601498E-2,-5.376731E-2],"categories":[],"categories_nodes":[],"categories_segments":[],"categories_sizes":[],"default_left":[0,0,0],"id":61,"left_children":[1,-1,-1],"loss_changes":[6.6970825E-2,0E0,0E0],"parents":[2147483647,0,0],"right_children":[2,-1,-1],"split_conditions":[-4.1607353E-1,5.4601498E-2,-5.376731E-2],"split_indices":[15,0,0],"split_type":[0,0,0],"sum_hessian":[2.0530825E0,1.0183983E0,1.0346841E0],"tree_param":{"num_deleted":"0","num_feature":"31","num_nodes":"3","size_leaf_vector":"1"}},{"base_weights":[-2.9239887E-5,-4.2359583E-2,4.0716078E-2],"categories":[],"categories_nodes":[],"categories_segments":[],"categories_sizes":[],"default_left":[0,0,0],"id":62,"left_children":[1,-1,-1],"loss_changes":[3.91147E-2,0E0,0E0],"parents":[2147483647,0,0],"right_children":[2,-1,-1],"split_conditions":[8.639372E-2,-4.2359583E-2,4.0716078E-2],"split_indices":[4,0,0],"split_type":[0,0,0],"sum_hessian":[2.0410836E0,1.000569E0,1.0405146E0],"tree_param":{"num_deleted":"0","num_feature":"31","num_nodes":"3","size_leaf_vector":"1"}},{"base_weights":[-2.3837174E-5,-4.8119426E-2,4.6806537E-2],"categories":[],"categories_nodes":[],"categories_segments":[],"categories_sizes":[],"default_left":[0,0,0],"id":63,"left_children":[1,-1,-1],"loss_changes":[5.086427E-2,0E0,0E0],"parents":[2147483647,0,0],"right_children":[2,-1,-1],"split_conditions":[-8.530005E-2,-4.8119426E-2,4.6806537E-2],"split_indices":[1,0,0],"split_type":[0,0,0],"sum_hessian":[2.0324793E0,1.0023386E0,1.0301406E0],"tree_param":{"num_deleted":"0","num_feature":"31","num_nodes":"3","size_leaf_vector":"1"}},{"base_weights":[-2.0501322E-5,-4.0301364E-2,4.0616296E-2],"categories":[],"categories_nodes":[],"categories_segments":[],"categories_sizes":[],"default_left":[0,0,0],"id":64,"left_children":[1,-1,-1],"loss_changes":[3.6736317E-2,0E0,0E0],"parents":[2147483647,0,0],"right_children":[2,-1,-1],"split_conditions":[-2.375713E-1,-4.0301364E-2,4.0616296E-2],"split_indices":[13,0,0],"split_type":[0,0,0],"sum_hessian":[2.0198455E0,1.0140083E0,1.0058372E0],"tree_param":{"num_deleted":"0","num_feature":"31","num_nodes":"3","size_leaf_vector":"1"}},{"base_weights":[-1.3546754E-5,3.9629612E-2,-4.0030994E-2],"categories":[],"categories_nodes":[],"categories_segments":[],"categories_sizes":[],"default_left":[0,0,0],"id":65,"left_children":[1,-1,-1],"loss_changes":[3.5437718E-2,0E0,0E0],"parents":[2147483647,0,0],"right_children":[2,-1,-1],"split_conditions":[-4.0153787E-1,3.9629612E-2,-4.0030994E-2],"split_indices":[15,0,0],"split_type":[0,0,0],"sum_hessian":[2.0104403E0,1.0101811E0,1.0002592E0],"tree_param":{"num_deleted":"0","num_feature":"31","num_nodes":"3","size_leaf_vector":"1"}},{"base_weights":[-1.0208161E-5,-4.35826E-2,4.3664407E-2],"categories":[],"categories_nodes":[],"categories_segments":[],"categories_sizes":[],"default_left":[0,0,0],"id":66,"left_children":[1,-1,-1],"loss_changes":[4.238353E-2,0E0,0E0],"parents":[2147483647,0,0],"right_children":[2,-1,-1],"split_conditions":[-1.2447694E-1,-4.35826E-2,4.3664407E-2],"split_indices":[26,0,0],"split_type":[0,0,0],"sum_hessian":[2.0044653E0,1.003244E0,1.0012213E0],"tree_param":{"num_deleted":"0","num_feature":"31","num_nodes":"3","size_leaf_vector":"1"}},{"base_weights":[-6.6728267E-6],"categories":[],"categories_nodes":[],"categories_segments":[],"categories_sizes":[],"default_left":[0],"id":67,"left_children":[-1],"loss_changes":[0E0],"parents":[2147483647],"right_children":[-1],"split_conditions":[-2.001848E-6],"split_indices":[0],"split_type":[0],"sum_hessian":[1.9919963E0],"tree_param":{"num_deleted":"0","num_feature":"31","num_nodes":"1","size_leaf_vector":"1"}},{"base_weights":[-5.0696353E-6],"categories":[],"categories_nodes":[],"categories_segments":[],"categories_sizes":[],"default_left":[0],"id":68,"left_children":[-1],"loss_changes":[0E0],"parents":[2147483647],"right_children":[-1],"split_conditions":[-1.5208907E-6],"split_indices":[0],"split_type":[0],"sum_hessian":[1.9919958E0],"tree_param":{"num_deleted":"0","num_feature":"31","num_nodes":"1","size_leaf_vector":"1"}},{"base_weights":[-3.7380457E-6],"categories":[],"categories_nodes":[],"categories_segments":[],"categories_sizes":[],"default_left":[0],"id":69,"left_children":[-1],"loss_changes":[0E0],"parents":[2147483647],"right_children":[-1],"split_conditions":[-1.1214138E-6],"split_indices":[0],"split_type":[0],"sum_hessian":[1.9919955E0],"tree_param":{"num_deleted":"0","num_feature":"31","num_nodes":"1","size_leaf_vector":"1"}},{"base_weights":[-2.4924373E-6],"categories":[],"categories_nodes":[],"categories_segments":[],"categories_sizes":[],"default_left":[0],"id":70,"left_children":[-1],"loss_changes":[0E0],"parents":[2147483647],"right_children":[-1],"split_conditions":[-7.4773124E-7],"split_indices":[0],"split_type":[0],"sum_hessian":[1.9919958E0],"tree_param":{"num_deleted":"0","num_feature":"31","num_nodes":"1","size_leaf_vector":"1"}},{"base_weights":[-1.5741875E-6],"categories":[],"categories_nodes":[],"categories_segments":[],"categories_sizes":[],"default_left":[0],"id":71,"left_children":[-1],"loss_changes":[0E0],"parents":[2147483647],"right_children":[-1],"split_conditions":[-4.722563E-7],"split_indices":[0],"split_type":[0],"sum_hessian":[1.991996E0],"tree_param":{"num_deleted":"0","num_feature":"31","num_nodes":"1","size_leaf_vector":"1"}}]},"name":"gbtree"},"learner_model_param":{"base_score":"[5E-1]","boost_from_average":"1","num_class":"0","num_feature":"31","num_target":"1"},"objective":{"name":"binary:logistic","reg_loss_param":{"scale_pos_weight":"1.6891892"}}},"version":[3,1,3]}